digraph Tree {
node [shape=box, fontname="helvetica"] ;
edge [fontname="helvetica"] ;
0 [label="x[1] <= 13.05\nsquared_error = 418610.81\nsamples = 6132\nvalue = 706.635"] ;
1 [label="x[14] <= 0.5\nsquared_error = 133247.299\nsamples = 2953\nvalue = 379.719"] ;
0 -> 1 [labeldistance=2.5, labelangle=45, headlabel="True"] ;
2 [label="x[0] <= 6.5\nsquared_error = 195888.443\nsamples = 1468\nvalue = 536.016"] ;
1 -> 2 ;
3 [label="x[0] <= 1.5\nsquared_error = 33700.883\nsamples = 566\nvalue = 247.618"] ;
2 -> 3 ;
4 [label="x[10] <= 3.5\nsquared_error = 41060.51\nsamples = 152\nvalue = 417.099"] ;
3 -> 4 ;
5 [label="x[2] <= 82.5\nsquared_error = 14813.026\nsamples = 41\nvalue = 250.268"] ;
4 -> 5 ;
6 [label="x[1] <= 2.95\nsquared_error = 7918.992\nsamples = 29\nvalue = 297.793"] ;
5 -> 6 ;
7 [label="x[2] <= 73.5\nsquared_error = 3736.765\nsamples = 9\nvalue = 217.889"] ;
6 -> 7 ;
8 [label="x[1] <= -2.0\nsquared_error = 1840.122\nsamples = 7\nvalue = 192.857"] ;
7 -> 8 ;
9 [label="squared_error = 0.0\nsamples = 1\nvalue = 108.0"] ;
8 -> 9 ;
10 [label="x[9] <= 1.5\nsquared_error = 746.667\nsamples = 6\nvalue = 207.0"] ;
8 -> 10 ;
11 [label="x[4] <= 1559.5\nsquared_error = 156.25\nsamples = 2\nvalue = 175.5"] ;
10 -> 11 ;
12 [label="squared_error = 0.0\nsamples = 1\nvalue = 163.0"] ;
11 -> 12 ;
13 [label="squared_error = 0.0\nsamples = 1\nvalue = 188.0"] ;
11 -> 13 ;
14 [label="x[2] <= 42.5\nsquared_error = 297.688\nsamples = 4\nvalue = 222.75"] ;
10 -> 14 ;
15 [label="x[4] <= 1966.5\nsquared_error = 30.25\nsamples = 2\nvalue = 234.5"] ;
14 -> 15 ;
16 [label="squared_error = 0.0\nsamples = 1\nvalue = 229.0"] ;
15 -> 16 ;
17 [label="squared_error = 0.0\nsamples = 1\nvalue = 240.0"] ;
15 -> 17 ;
18 [label="x[3] <= 2.3\nsquared_error = 289.0\nsamples = 2\nvalue = 211.0"] ;
14 -> 18 ;
19 [label="squared_error = 0.0\nsamples = 1\nvalue = 194.0"] ;
18 -> 19 ;
20 [label="squared_error = 0.0\nsamples = 1\nvalue = 228.0"] ;
18 -> 20 ;
21 [label="x[5] <= -1.7\nsquared_error = 506.25\nsamples = 2\nvalue = 305.5"] ;
7 -> 21 ;
22 [label="squared_error = 0.0\nsamples = 1\nvalue = 328.0"] ;
21 -> 22 ;
23 [label="squared_error = 0.0\nsamples = 1\nvalue = 283.0"] ;
21 -> 23 ;
24 [label="x[5] <= 7.3\nsquared_error = 5634.988\nsamples = 20\nvalue = 333.75"] ;
6 -> 24 ;
25 [label="x[9] <= 4.5\nsquared_error = 4378.561\nsamples = 17\nvalue = 316.706"] ;
24 -> 25 ;
26 [label="x[1] <= 8.85\nsquared_error = 2368.247\nsamples = 9\nvalue = 285.444"] ;
25 -> 26 ;
27 [label="x[1] <= 6.1\nsquared_error = 952.245\nsamples = 7\nvalue = 264.571"] ;
26 -> 27 ;
28 [label="x[2] <= 68.5\nsquared_error = 355.5\nsamples = 4\nvalue = 242.0"] ;
27 -> 28 ;
29 [label="x[3] <= 2.1\nsquared_error = 74.0\nsamples = 3\nvalue = 232.0"] ;
28 -> 29 ;
30 [label="x[4] <= 818.0\nsquared_error = 20.25\nsamples = 2\nvalue = 226.5"] ;
29 -> 30 ;
31 [label="squared_error = 0.0\nsamples = 1\nvalue = 231.0"] ;
30 -> 31 ;
32 [label="squared_error = 0.0\nsamples = 1\nvalue = 222.0"] ;
30 -> 32 ;
33 [label="squared_error = 0.0\nsamples = 1\nvalue = 243.0"] ;
29 -> 33 ;
34 [label="squared_error = 0.0\nsamples = 1\nvalue = 272.0"] ;
28 -> 34 ;
35 [label="x[5] <= 1.6\nsquared_error = 162.889\nsamples = 3\nvalue = 294.667"] ;
27 -> 35 ;
36 [label="x[3] <= 2.0\nsquared_error = 36.0\nsamples = 2\nvalue = 303.0"] ;
35 -> 36 ;
37 [label="squared_error = 0.0\nsamples = 1\nvalue = 309.0"] ;
36 -> 37 ;
38 [label="squared_error = 0.0\nsamples = 1\nvalue = 297.0"] ;
36 -> 38 ;
39 [label="squared_error = 0.0\nsamples = 1\nvalue = 278.0"] ;
35 -> 39 ;
40 [label="x[4] <= 400.0\nsquared_error = 462.25\nsamples = 2\nvalue = 358.5"] ;
26 -> 40 ;
41 [label="squared_error = 0.0\nsamples = 1\nvalue = 337.0"] ;
40 -> 41 ;
42 [label="squared_error = 0.0\nsamples = 1\nvalue = 380.0"] ;
40 -> 42 ;
43 [label="x[4] <= 650.5\nsquared_error = 4303.859\nsamples = 8\nvalue = 351.875"] ;
25 -> 43 ;
44 [label="x[5] <= 2.55\nsquared_error = 506.25\nsamples = 2\nvalue = 244.5"] ;
43 -> 44 ;
45 [label="squared_error = 0.0\nsamples = 1\nvalue = 222.0"] ;
44 -> 45 ;
46 [label="squared_error = 0.0\nsamples = 1\nvalue = 267.0"] ;
44 -> 46 ;
47 [label="x[0] <= 0.5\nsquared_error = 445.556\nsamples = 6\nvalue = 387.667"] ;
43 -> 47 ;
48 [label="x[2] <= 66.5\nsquared_error = 207.5\nsamples = 4\nvalue = 400.0"] ;
47 -> 48 ;
49 [label="x[5] <= -6.1\nsquared_error = 20.667\nsamples = 3\nvalue = 408.0"] ;
48 -> 49 ;
50 [label="squared_error = 0.0\nsamples = 1\nvalue = 414.0"] ;
49 -> 50 ;
51 [label="x[5] <= -4.05\nsquared_error = 4.0\nsamples = 2\nvalue = 405.0"] ;
49 -> 51 ;
52 [label="squared_error = 0.0\nsamples = 1\nvalue = 403.0"] ;
51 -> 52 ;
53 [label="squared_error = 0.0\nsamples = 1\nvalue = 407.0"] ;
51 -> 53 ;
54 [label="squared_error = 0.0\nsamples = 1\nvalue = 376.0"] ;
48 -> 54 ;
55 [label="x[5] <= -5.2\nsquared_error = 9.0\nsamples = 2\nvalue = 363.0"] ;
47 -> 55 ;
56 [label="squared_error = 0.0\nsamples = 1\nvalue = 366.0"] ;
55 -> 56 ;
57 [label="squared_error = 0.0\nsamples = 1\nvalue = 360.0"] ;
55 -> 57 ;
58 [label="x[5] <= 7.9\nsquared_error = 1780.222\nsamples = 3\nvalue = 430.333"] ;
24 -> 58 ;
59 [label="x[1] <= 11.7\nsquared_error = 0.25\nsamples = 2\nvalue = 400.5"] ;
58 -> 59 ;
60 [label="squared_error = 0.0\nsamples = 1\nvalue = 401.0"] ;
59 -> 60 ;
61 [label="squared_error = 0.0\nsamples = 1\nvalue = 400.0"] ;
59 -> 61 ;
62 [label="squared_error = 0.0\nsamples = 1\nvalue = 490.0"] ;
58 -> 62 ;
63 [label="x[9] <= 3.5\nsquared_error = 12824.41\nsamples = 12\nvalue = 135.417"] ;
5 -> 63 ;
64 [label="x[5] <= 0.4\nsquared_error = 6140.914\nsamples = 9\nvalue = 89.444"] ;
63 -> 64 ;
65 [label="squared_error = 0.0\nsamples = 1\nvalue = 247.0"] ;
64 -> 65 ;
66 [label="x[4] <= 236.5\nsquared_error = 3417.688\nsamples = 8\nvalue = 69.75"] ;
64 -> 66 ;
67 [label="squared_error = 0.0\nsamples = 1\nvalue = 185.0"] ;
66 -> 67 ;
68 [label="x[3] <= 0.45\nsquared_error = 1737.347\nsamples = 7\nvalue = 53.286"] ;
66 -> 68 ;
69 [label="squared_error = 0.0\nsamples = 1\nvalue = 147.0"] ;
68 -> 69 ;
70 [label="x[2] <= 92.0\nsquared_error = 319.222\nsamples = 6\nvalue = 37.667"] ;
68 -> 70 ;
71 [label="x[2] <= 85.0\nsquared_error = 116.4\nsamples = 5\nvalue = 31.0"] ;
70 -> 71 ;
72 [label="x[1] <= 5.95\nsquared_error = 30.25\nsamples = 2\nvalue = 43.5"] ;
71 -> 72 ;
73 [label="squared_error = 0.0\nsamples = 1\nvalue = 49.0"] ;
72 -> 73 ;
74 [label="squared_error = 0.0\nsamples = 1\nvalue = 38.0"] ;
72 -> 74 ;
75 [label="x[7] <= 4.5\nsquared_error = 0.222\nsamples = 3\nvalue = 22.667"] ;
71 -> 75 ;
76 [label="squared_error = 0.0\nsamples = 2\nvalue = 23.0"] ;
75 -> 76 ;
77 [label="squared_error = 0.0\nsamples = 1\nvalue = 22.0"] ;
75 -> 77 ;
78 [label="squared_error = 0.0\nsamples = 1\nvalue = 71.0"] ;
70 -> 78 ;
79 [label="x[2] <= 86.5\nsquared_error = 7513.556\nsamples = 3\nvalue = 273.333"] ;
63 -> 79 ;
80 [label="x[9] <= 5.0\nsquared_error = 1806.25\nsamples = 2\nvalue = 329.5"] ;
79 -> 80 ;
81 [label="squared_error = 0.0\nsamples = 1\nvalue = 287.0"] ;
80 -> 81 ;
82 [label="squared_error = 0.0\nsamples = 1\nvalue = 372.0"] ;
80 -> 82 ;
83 [label="squared_error = 0.0\nsamples = 1\nvalue = 161.0"] ;
79 -> 83 ;
84 [label="x[18] <= 0.5\nsquared_error = 36677.823\nsamples = 111\nvalue = 478.721"] ;
4 -> 84 ;
85 [label="squared_error = 0.0\nsamples = 6\nvalue = 0.0"] ;
84 -> 85 ;
86 [label="x[1] <= 3.3\nsquared_error = 24929.747\nsamples = 105\nvalue = 506.076"] ;
84 -> 86 ;
87 [label="x[12] <= 0.5\nsquared_error = 14679.402\nsamples = 16\nvalue = 353.812"] ;
86 -> 87 ;
88 [label="x[5] <= 0.55\nsquared_error = 7186.16\nsamples = 10\nvalue = 426.8"] ;
87 -> 88 ;
89 [label="x[4] <= 1339.0\nsquared_error = 2394.025\nsamples = 9\nvalue = 450.444"] ;
88 -> 89 ;
90 [label="x[8] <= 2.95\nsquared_error = 454.222\nsamples = 3\nvalue = 390.667"] ;
89 -> 90 ;
91 [label="x[8] <= 1.45\nsquared_error = 36.0\nsamples = 2\nvalue = 376.0"] ;
90 -> 91 ;
92 [label="squared_error = 0.0\nsamples = 1\nvalue = 382.0"] ;
91 -> 92 ;
93 [label="squared_error = 0.0\nsamples = 1\nvalue = 370.0"] ;
91 -> 93 ;
94 [label="squared_error = 0.0\nsamples = 1\nvalue = 420.0"] ;
90 -> 94 ;
95 [label="x[5] <= -10.75\nsquared_error = 683.889\nsamples = 6\nvalue = 480.333"] ;
89 -> 95 ;
96 [label="x[3] <= 1.35\nsquared_error = 178.667\nsamples = 3\nvalue = 503.0"] ;
95 -> 96 ;
97 [label="x[3] <= 1.0\nsquared_error = 25.0\nsamples = 2\nvalue = 512.0"] ;
96 -> 97 ;
98 [label="squared_error = 0.0\nsamples = 1\nvalue = 517.0"] ;
97 -> 98 ;
99 [label="squared_error = 0.0\nsamples = 1\nvalue = 507.0"] ;
97 -> 99 ;
100 [label="squared_error = 0.0\nsamples = 1\nvalue = 485.0"] ;
96 -> 100 ;
101 [label="x[3] <= 1.8\nsquared_error = 161.556\nsamples = 3\nvalue = 457.667"] ;
95 -> 101 ;
102 [label="squared_error = 0.0\nsamples = 1\nvalue = 474.0"] ;
101 -> 102 ;
103 [label="x[9] <= 3.5\nsquared_error = 42.25\nsamples = 2\nvalue = 449.5"] ;
101 -> 103 ;
104 [label="squared_error = 0.0\nsamples = 1\nvalue = 443.0"] ;
103 -> 104 ;
105 [label="squared_error = 0.0\nsamples = 1\nvalue = 456.0"] ;
103 -> 105 ;
106 [label="squared_error = 0.0\nsamples = 1\nvalue = 214.0"] ;
88 -> 106 ;
107 [label="x[3] <= 1.95\nsquared_error = 3491.806\nsamples = 6\nvalue = 232.167"] ;
87 -> 107 ;
108 [label="x[2] <= 85.5\nsquared_error = 1226.0\nsamples = 3\nvalue = 187.0"] ;
107 -> 108 ;
109 [label="x[3] <= 1.15\nsquared_error = 182.25\nsamples = 2\nvalue = 210.5"] ;
108 -> 109 ;
110 [label="squared_error = 0.0\nsamples = 1\nvalue = 197.0"] ;
109 -> 110 ;
111 [label="squared_error = 0.0\nsamples = 1\nvalue = 224.0"] ;
109 -> 111 ;
112 [label="squared_error = 0.0\nsamples = 1\nvalue = 140.0"] ;
108 -> 112 ;
113 [label="x[0] <= 0.5\nsquared_error = 1677.556\nsamples = 3\nvalue = 277.333"] ;
107 -> 113 ;
114 [label="x[3] <= 2.75\nsquared_error = 462.25\nsamples = 2\nvalue = 303.5"] ;
113 -> 114 ;
115 [label="squared_error = 0.0\nsamples = 1\nvalue = 325.0"] ;
114 -> 115 ;
116 [label="squared_error = 0.0\nsamples = 1\nvalue = 282.0"] ;
114 -> 116 ;
117 [label="squared_error = 0.0\nsamples = 1\nvalue = 225.0"] ;
113 -> 117 ;
118 [label="x[9] <= 3.5\nsquared_error = 21855.259\nsamples = 89\nvalue = 533.449"] ;
86 -> 118 ;
119 [label="x[2] <= 85.0\nsquared_error = 19652.596\nsamples = 52\nvalue = 475.019"] ;
118 -> 119 ;
120 [label="x[0] <= 0.5\nsquared_error = 15535.562\nsamples = 47\nvalue = 496.723"] ;
119 -> 120 ;
121 [label="x[3] <= 1.35\nsquared_error = 12062.174\nsamples = 22\nvalue = 562.909"] ;
120 -> 121 ;
122 [label="x[1] <= 9.1\nsquared_error = 8328.959\nsamples = 11\nvalue = 634.636"] ;
121 -> 122 ;
123 [label="x[9] <= 1.5\nsquared_error = 8208.24\nsamples = 5\nvalue = 569.4"] ;
122 -> 123 ;
124 [label="x[5] <= -0.55\nsquared_error = 3156.222\nsamples = 3\nvalue = 509.333"] ;
123 -> 124 ;
125 [label="x[4] <= 1629.5\nsquared_error = 210.25\nsamples = 2\nvalue = 470.5"] ;
124 -> 125 ;
126 [label="squared_error = 0.0\nsamples = 1\nvalue = 485.0"] ;
125 -> 126 ;
127 [label="squared_error = 0.0\nsamples = 1\nvalue = 456.0"] ;
125 -> 127 ;
128 [label="squared_error = 0.0\nsamples = 1\nvalue = 587.0"] ;
124 -> 128 ;
129 [label="x[4] <= 1931.0\nsquared_error = 2256.25\nsamples = 2\nvalue = 659.5"] ;
123 -> 129 ;
130 [label="squared_error = 0.0\nsamples = 1\nvalue = 612.0"] ;
129 -> 130 ;
131 [label="squared_error = 0.0\nsamples = 1\nvalue = 707.0"] ;
129 -> 131 ;
132 [label="x[9] <= 1.0\nsquared_error = 1927.667\nsamples = 6\nvalue = 689.0"] ;
122 -> 132 ;
133 [label="x[5] <= 1.6\nsquared_error = 1477.556\nsamples = 3\nvalue = 657.333"] ;
132 -> 133 ;
134 [label="squared_error = 0.0\nsamples = 1\nvalue = 711.0"] ;
133 -> 134 ;
135 [label="x[2] <= 67.0\nsquared_error = 56.25\nsamples = 2\nvalue = 630.5"] ;
133 -> 135 ;
136 [label="squared_error = 0.0\nsamples = 1\nvalue = 623.0"] ;
135 -> 136 ;
137 [label="squared_error = 0.0\nsamples = 1\nvalue = 638.0"] ;
135 -> 137 ;
138 [label="x[1] <= 9.85\nsquared_error = 372.222\nsamples = 3\nvalue = 720.667"] ;
132 -> 138 ;
139 [label="squared_error = 0.0\nsamples = 1\nvalue = 694.0"] ;
138 -> 139 ;
140 [label="x[1] <= 11.4\nsquared_error = 25.0\nsamples = 2\nvalue = 734.0"] ;
138 -> 140 ;
141 [label="squared_error = 0.0\nsamples = 1\nvalue = 729.0"] ;
140 -> 141 ;
142 [label="squared_error = 0.0\nsamples = 1\nvalue = 739.0"] ;
140 -> 142 ;
143 [label="x[4] <= 530.5\nsquared_error = 5505.785\nsamples = 11\nvalue = 491.182"] ;
121 -> 143 ;
144 [label="squared_error = 0.0\nsamples = 1\nvalue = 639.0"] ;
143 -> 144 ;
145 [label="x[3] <= 2.25\nsquared_error = 3652.84\nsamples = 10\nvalue = 476.4"] ;
143 -> 145 ;
146 [label="x[2] <= 58.0\nsquared_error = 2738.0\nsamples = 8\nvalue = 459.5"] ;
145 -> 146 ;
147 [label="x[5] <= -3.3\nsquared_error = 1430.75\nsamples = 4\nvalue = 502.5"] ;
146 -> 147 ;
148 [label="x[10] <= 10.5\nsquared_error = 361.0\nsamples = 2\nvalue = 469.0"] ;
147 -> 148 ;
149 [label="squared_error = 0.0\nsamples = 1\nvalue = 488.0"] ;
148 -> 149 ;
150 [label="squared_error = 0.0\nsamples = 1\nvalue = 450.0"] ;
148 -> 150 ;
151 [label="x[2] <= 50.5\nsquared_error = 256.0\nsamples = 2\nvalue = 536.0"] ;
147 -> 151 ;
152 [label="squared_error = 0.0\nsamples = 1\nvalue = 520.0"] ;
151 -> 152 ;
153 [label="squared_error = 0.0\nsamples = 1\nvalue = 552.0"] ;
151 -> 153 ;
154 [label="x[3] <= 1.75\nsquared_error = 347.25\nsamples = 4\nvalue = 416.5"] ;
146 -> 154 ;
155 [label="x[12] <= 0.5\nsquared_error = 1.0\nsamples = 2\nvalue = 435.0"] ;
154 -> 155 ;
156 [label="squared_error = 0.0\nsamples = 1\nvalue = 434.0"] ;
155 -> 156 ;
157 [label="squared_error = 0.0\nsamples = 1\nvalue = 436.0"] ;
155 -> 157 ;
158 [label="x[1] <= 10.6\nsquared_error = 9.0\nsamples = 2\nvalue = 398.0"] ;
154 -> 158 ;
159 [label="squared_error = 0.0\nsamples = 1\nvalue = 401.0"] ;
158 -> 159 ;
160 [label="squared_error = 0.0\nsamples = 1\nvalue = 395.0"] ;
158 -> 160 ;
161 [label="x[3] <= 2.35\nsquared_error = 1600.0\nsamples = 2\nvalue = 544.0"] ;
145 -> 161 ;
162 [label="squared_error = 0.0\nsamples = 1\nvalue = 584.0"] ;
161 -> 162 ;
163 [label="squared_error = 0.0\nsamples = 1\nvalue = 504.0"] ;
161 -> 163 ;
164 [label="x[5] <= 7.8\nsquared_error = 11344.97\nsamples = 25\nvalue = 438.48"] ;
120 -> 164 ;
165 [label="x[9] <= 0.5\nsquared_error = 8403.222\nsamples = 24\nvalue = 450.167"] ;
164 -> 165 ;
166 [label="x[5] <= -0.9\nsquared_error = 1475.36\nsamples = 5\nvalue = 345.8"] ;
165 -> 166 ;
167 [label="squared_error = 0.0\nsamples = 1\nvalue = 277.0"] ;
166 -> 167 ;
168 [label="x[10] <= 10.5\nsquared_error = 365.0\nsamples = 4\nvalue = 363.0"] ;
166 -> 168 ;
169 [label="x[5] <= 2.3\nsquared_error = 81.0\nsamples = 2\nvalue = 381.0"] ;
168 -> 169 ;
170 [label="squared_error = 0.0\nsamples = 1\nvalue = 390.0"] ;
169 -> 170 ;
171 [label="squared_error = 0.0\nsamples = 1\nvalue = 372.0"] ;
169 -> 171 ;
172 [label="x[3] <= 0.7\nsquared_error = 1.0\nsamples = 2\nvalue = 345.0"] ;
168 -> 172 ;
173 [label="squared_error = 0.0\nsamples = 1\nvalue = 346.0"] ;
172 -> 173 ;
174 [label="squared_error = 0.0\nsamples = 1\nvalue = 344.0"] ;
172 -> 174 ;
175 [label="x[5] <= 2.25\nsquared_error = 6605.601\nsamples = 19\nvalue = 477.632"] ;
165 -> 175 ;
176 [label="x[3] <= 0.75\nsquared_error = 4611.806\nsamples = 12\nvalue = 439.167"] ;
175 -> 176 ;
177 [label="x[5] <= 1.25\nsquared_error = 2010.24\nsamples = 5\nvalue = 488.4"] ;
176 -> 177 ;
178 [label="x[5] <= 0.0\nsquared_error = 492.75\nsamples = 4\nvalue = 508.5"] ;
177 -> 178 ;
179 [label="x[10] <= 10.5\nsquared_error = 144.0\nsamples = 2\nvalue = 529.0"] ;
178 -> 179 ;
180 [label="squared_error = 0.0\nsamples = 1\nvalue = 541.0"] ;
179 -> 180 ;
181 [label="squared_error = 0.0\nsamples = 1\nvalue = 517.0"] ;
179 -> 181 ;
182 [label="x[9] <= 2.0\nsquared_error = 1.0\nsamples = 2\nvalue = 488.0"] ;
178 -> 182 ;
183 [label="squared_error = 0.0\nsamples = 1\nvalue = 487.0"] ;
182 -> 183 ;
184 [label="squared_error = 0.0\nsamples = 1\nvalue = 489.0"] ;
182 -> 184 ;
185 [label="squared_error = 0.0\nsamples = 1\nvalue = 408.0"] ;
177 -> 185 ;
186 [label="x[1] <= 5.85\nsquared_error = 3502.0\nsamples = 7\nvalue = 404.0"] ;
176 -> 186 ;
187 [label="x[1] <= 5.0\nsquared_error = 2025.0\nsamples = 2\nvalue = 479.0"] ;
186 -> 187 ;
188 [label="squared_error = 0.0\nsamples = 1\nvalue = 434.0"] ;
187 -> 188 ;
189 [label="squared_error = 0.0\nsamples = 1\nvalue = 524.0"] ;
187 -> 189 ;
190 [label="x[5] <= -0.9\nsquared_error = 942.8\nsamples = 5\nvalue = 374.0"] ;
186 -> 190 ;
191 [label="x[2] <= 38.0\nsquared_error = 397.25\nsamples = 4\nvalue = 386.5"] ;
190 -> 191 ;
192 [label="squared_error = 0.0\nsamples = 1\nvalue = 421.0"] ;
191 -> 192 ;
193 [label="x[1] <= 8.95\nsquared_error = 0.667\nsamples = 3\nvalue = 375.0"] ;
191 -> 193 ;
194 [label="x[5] <= -3.15\nsquared_error = 0.25\nsamples = 2\nvalue = 374.5"] ;
193 -> 194 ;
195 [label="squared_error = 0.0\nsamples = 1\nvalue = 374.0"] ;
194 -> 195 ;
196 [label="squared_error = 0.0\nsamples = 1\nvalue = 375.0"] ;
194 -> 196 ;
197 [label="squared_error = 0.0\nsamples = 1\nvalue = 376.0"] ;
193 -> 197 ;
198 [label="squared_error = 0.0\nsamples = 1\nvalue = 324.0"] ;
190 -> 198 ;
199 [label="x[4] <= 476.0\nsquared_error = 3139.102\nsamples = 7\nvalue = 543.571"] ;
175 -> 199 ;
200 [label="squared_error = 0.0\nsamples = 1\nvalue = 410.0"] ;
199 -> 200 ;
201 [label="x[10] <= 4.5\nsquared_error = 193.139\nsamples = 6\nvalue = 565.833"] ;
199 -> 201 ;
202 [label="squared_error = 0.0\nsamples = 1\nvalue = 546.0"] ;
201 -> 202 ;
203 [label="x[9] <= 1.5\nsquared_error = 137.36\nsamples = 5\nvalue = 569.8"] ;
201 -> 203 ;
204 [label="squared_error = 0.0\nsamples = 1\nvalue = 547.0"] ;
203 -> 204 ;
205 [label="x[5] <= 6.0\nsquared_error = 9.25\nsamples = 4\nvalue = 575.5"] ;
203 -> 205 ;
206 [label="x[2] <= 64.0\nsquared_error = 0.25\nsamples = 2\nvalue = 578.5"] ;
205 -> 206 ;
207 [label="squared_error = 0.0\nsamples = 1\nvalue = 578.0"] ;
206 -> 207 ;
208 [label="squared_error = 0.0\nsamples = 1\nvalue = 579.0"] ;
206 -> 208 ;
209 [label="x[9] <= 2.5\nsquared_error = 0.25\nsamples = 2\nvalue = 572.5"] ;
205 -> 209 ;
210 [label="squared_error = 0.0\nsamples = 1\nvalue = 573.0"] ;
209 -> 210 ;
211 [label="squared_error = 0.0\nsamples = 1\nvalue = 572.0"] ;
209 -> 211 ;
212 [label="squared_error = 0.0\nsamples = 1\nvalue = 158.0"] ;
164 -> 212 ;
213 [label="x[10] <= 4.5\nsquared_error = 12300.8\nsamples = 5\nvalue = 271.0"] ;
119 -> 213 ;
214 [label="x[4] <= 1238.5\nsquared_error = 4356.0\nsamples = 2\nvalue = 147.0"] ;
213 -> 214 ;
215 [label="squared_error = 0.0\nsamples = 1\nvalue = 81.0"] ;
214 -> 215 ;
216 [label="squared_error = 0.0\nsamples = 1\nvalue = 213.0"] ;
214 -> 216 ;
217 [label="x[1] <= 8.3\nsquared_error = 512.889\nsamples = 3\nvalue = 353.667"] ;
213 -> 217 ;
218 [label="squared_error = 0.0\nsamples = 1\nvalue = 323.0"] ;
217 -> 218 ;
219 [label="x[3] <= 2.2\nsquared_error = 64.0\nsamples = 2\nvalue = 369.0"] ;
217 -> 219 ;
220 [label="squared_error = 0.0\nsamples = 1\nvalue = 377.0"] ;
219 -> 220 ;
221 [label="squared_error = 0.0\nsamples = 1\nvalue = 361.0"] ;
219 -> 221 ;
222 [label="x[10] <= 4.5\nsquared_error = 13409.327\nsamples = 37\nvalue = 615.568"] ;
118 -> 222 ;
223 [label="x[1] <= 10.6\nsquared_error = 13766.992\nsamples = 11\nvalue = 528.909"] ;
222 -> 223 ;
224 [label="x[3] <= 2.7\nsquared_error = 2734.889\nsamples = 3\nvalue = 418.667"] ;
223 -> 224 ;
225 [label="x[4] <= 1870.5\nsquared_error = 462.25\nsamples = 2\nvalue = 453.5"] ;
224 -> 225 ;
226 [label="squared_error = 0.0\nsamples = 1\nvalue = 475.0"] ;
225 -> 226 ;
227 [label="squared_error = 0.0\nsamples = 1\nvalue = 432.0"] ;
225 -> 227 ;
228 [label="squared_error = 0.0\nsamples = 1\nvalue = 349.0"] ;
224 -> 228 ;
229 [label="x[3] <= 0.65\nsquared_error = 11637.438\nsamples = 8\nvalue = 570.25"] ;
223 -> 229 ;
230 [label="x[2] <= 58.0\nsquared_error = 2664.222\nsamples = 3\nvalue = 480.667"] ;
229 -> 230 ;
231 [label="squared_error = 0.0\nsamples = 1\nvalue = 553.0"] ;
230 -> 231 ;
232 [label="x[5] <= 5.7\nsquared_error = 72.25\nsamples = 2\nvalue = 444.5"] ;
230 -> 232 ;
233 [label="squared_error = 0.0\nsamples = 1\nvalue = 436.0"] ;
232 -> 233 ;
234 [label="squared_error = 0.0\nsamples = 1\nvalue = 453.0"] ;
232 -> 234 ;
235 [label="x[1] <= 11.55\nsquared_error = 9317.2\nsamples = 5\nvalue = 624.0"] ;
229 -> 235 ;
236 [label="x[4] <= 1766.5\nsquared_error = 210.25\nsamples = 2\nvalue = 539.5"] ;
235 -> 236 ;
237 [label="squared_error = 0.0\nsamples = 1\nvalue = 554.0"] ;
236 -> 237 ;
238 [label="squared_error = 0.0\nsamples = 1\nvalue = 525.0"] ;
236 -> 238 ;
239 [label="x[1] <= 11.9\nsquared_error = 7454.889\nsamples = 3\nvalue = 680.333"] ;
235 -> 239 ;
240 [label="squared_error = 0.0\nsamples = 1\nvalue = 790.0"] ;
239 -> 240 ;
241 [label="x[5] <= 7.4\nsquared_error = 2162.25\nsamples = 2\nvalue = 625.5"] ;
239 -> 241 ;
242 [label="squared_error = 0.0\nsamples = 1\nvalue = 579.0"] ;
241 -> 242 ;
243 [label="squared_error = 0.0\nsamples = 1\nvalue = 672.0"] ;
241 -> 243 ;
244 [label="x[5] <= 3.25\nsquared_error = 8736.639\nsamples = 26\nvalue = 652.231"] ;
222 -> 244 ;
245 [label="x[0] <= 0.5\nsquared_error = 7109.597\nsamples = 14\nvalue = 605.786"] ;
244 -> 245 ;
246 [label="x[1] <= 10.2\nsquared_error = 5318.889\nsamples = 6\nvalue = 676.333"] ;
245 -> 246 ;
247 [label="x[4] <= 1995.0\nsquared_error = 2030.24\nsamples = 5\nvalue = 649.4"] ;
246 -> 247 ;
248 [label="x[5] <= -2.9\nsquared_error = 242.667\nsamples = 3\nvalue = 614.0"] ;
247 -> 248 ;
249 [label="squared_error = 0.0\nsamples = 1\nvalue = 592.0"] ;
248 -> 249 ;
250 [label="x[4] <= 1261.5\nsquared_error = 1.0\nsamples = 2\nvalue = 625.0"] ;
248 -> 250 ;
251 [label="squared_error = 0.0\nsamples = 1\nvalue = 626.0"] ;
250 -> 251 ;
252 [label="squared_error = 0.0\nsamples = 1\nvalue = 624.0"] ;
250 -> 252 ;
253 [label="x[9] <= 5.0\nsquared_error = 12.25\nsamples = 2\nvalue = 702.5"] ;
247 -> 253 ;
254 [label="squared_error = 0.0\nsamples = 1\nvalue = 706.0"] ;
253 -> 254 ;
255 [label="squared_error = 0.0\nsamples = 1\nvalue = 699.0"] ;
253 -> 255 ;
256 [label="squared_error = 0.0\nsamples = 1\nvalue = 811.0"] ;
246 -> 256 ;
257 [label="x[3] <= 0.8\nsquared_error = 1920.359\nsamples = 8\nvalue = 552.875"] ;
245 -> 257 ;
258 [label="x[9] <= 4.5\nsquared_error = 648.667\nsamples = 3\nvalue = 593.0"] ;
257 -> 258 ;
259 [label="squared_error = 0.0\nsamples = 1\nvalue = 560.0"] ;
258 -> 259 ;
260 [label="x[1] <= 7.0\nsquared_error = 156.25\nsamples = 2\nvalue = 609.5"] ;
258 -> 260 ;
261 [label="squared_error = 0.0\nsamples = 1\nvalue = 597.0"] ;
260 -> 261 ;
262 [label="squared_error = 0.0\nsamples = 1\nvalue = 622.0"] ;
260 -> 262 ;
263 [label="x[3] <= 2.8\nsquared_error = 1137.76\nsamples = 5\nvalue = 528.8"] ;
257 -> 263 ;
264 [label="x[5] <= 2.05\nsquared_error = 435.188\nsamples = 4\nvalue = 514.75"] ;
263 -> 264 ;
265 [label="x[4] <= 1708.0\nsquared_error = 43.556\nsamples = 3\nvalue = 526.333"] ;
264 -> 265 ;
266 [label="squared_error = 0.0\nsamples = 1\nvalue = 517.0"] ;
265 -> 266 ;
267 [label="squared_error = 0.0\nsamples = 2\nvalue = 531.0"] ;
265 -> 267 ;
268 [label="squared_error = 0.0\nsamples = 1\nvalue = 480.0"] ;
264 -> 268 ;
269 [label="squared_error = 0.0\nsamples = 1\nvalue = 585.0"] ;
263 -> 269 ;
270 [label="x[3] <= 1.6\nsquared_error = 5182.076\nsamples = 12\nvalue = 706.417"] ;
244 -> 270 ;
271 [label="x[5] <= 6.45\nsquared_error = 3037.58\nsamples = 9\nvalue = 735.444"] ;
270 -> 271 ;
272 [label="x[3] <= 0.55\nsquared_error = 1180.188\nsamples = 4\nvalue = 782.75"] ;
271 -> 272 ;
273 [label="x[4] <= 1911.0\nsquared_error = 306.25\nsamples = 2\nvalue = 756.5"] ;
272 -> 273 ;
274 [label="squared_error = 0.0\nsamples = 1\nvalue = 739.0"] ;
273 -> 274 ;
275 [label="squared_error = 0.0\nsamples = 1\nvalue = 774.0"] ;
273 -> 275 ;
276 [label="x[5] <= 4.05\nsquared_error = 676.0\nsamples = 2\nvalue = 809.0"] ;
272 -> 276 ;
277 [label="squared_error = 0.0\nsamples = 1\nvalue = 835.0"] ;
276 -> 277 ;
278 [label="squared_error = 0.0\nsamples = 1\nvalue = 783.0"] ;
276 -> 278 ;
279 [label="x[5] <= 7.15\nsquared_error = 1301.04\nsamples = 5\nvalue = 697.6"] ;
271 -> 279 ;
280 [label="x[12] <= 0.5\nsquared_error = 110.25\nsamples = 2\nvalue = 665.5"] ;
279 -> 280 ;
281 [label="squared_error = 0.0\nsamples = 1\nvalue = 655.0"] ;
280 -> 281 ;
282 [label="squared_error = 0.0\nsamples = 1\nvalue = 676.0"] ;
280 -> 282 ;
283 [label="x[0] <= 0.5\nsquared_error = 950.0\nsamples = 3\nvalue = 719.0"] ;
279 -> 283 ;
284 [label="x[9] <= 4.5\nsquared_error = 225.0\nsamples = 2\nvalue = 739.0"] ;
283 -> 284 ;
285 [label="squared_error = 0.0\nsamples = 1\nvalue = 724.0"] ;
284 -> 285 ;
286 [label="squared_error = 0.0\nsamples = 1\nvalue = 754.0"] ;
284 -> 286 ;
287 [label="squared_error = 0.0\nsamples = 1\nvalue = 679.0"] ;
283 -> 287 ;
288 [label="x[11] <= 0.5\nsquared_error = 1504.222\nsamples = 3\nvalue = 619.333"] ;
270 -> 288 ;
289 [label="squared_error = 0.0\nsamples = 1\nvalue = 565.0"] ;
288 -> 289 ;
290 [label="x[3] <= 2.45\nsquared_error = 42.25\nsamples = 2\nvalue = 646.5"] ;
288 -> 290 ;
291 [label="squared_error = 0.0\nsamples = 1\nvalue = 653.0"] ;
290 -> 291 ;
292 [label="squared_error = 0.0\nsamples = 1\nvalue = 640.0"] ;
290 -> 292 ;
293 [label="x[10] <= 3.5\nsquared_error = 16581.036\nsamples = 414\nvalue = 185.394"] ;
3 -> 293 ;
294 [label="x[2] <= 84.5\nsquared_error = 5202.298\nsamples = 103\nvalue = 111.398"] ;
293 -> 294 ;
295 [label="x[0] <= 5.5\nsquared_error = 4446.474\nsamples = 74\nvalue = 132.23"] ;
294 -> 295 ;
296 [label="x[0] <= 2.5\nsquared_error = 3241.196\nsamples = 60\nvalue = 117.733"] ;
295 -> 296 ;
297 [label="x[5] <= -6.9\nsquared_error = 3998.24\nsamples = 15\nvalue = 186.6"] ;
296 -> 297 ;
298 [label="x[2] <= 43.0\nsquared_error = 1006.222\nsamples = 3\nvalue = 104.333"] ;
297 -> 298 ;
299 [label="squared_error = 0.0\nsamples = 1\nvalue = 147.0"] ;
298 -> 299 ;
300 [label="x[1] <= -1.3\nsquared_error = 144.0\nsamples = 2\nvalue = 83.0"] ;
298 -> 300 ;
301 [label="squared_error = 0.0\nsamples = 1\nvalue = 71.0"] ;
300 -> 301 ;
302 [label="squared_error = 0.0\nsamples = 1\nvalue = 95.0"] ;
300 -> 302 ;
303 [label="x[9] <= 1.5\nsquared_error = 2631.306\nsamples = 12\nvalue = 207.167"] ;
297 -> 303 ;
304 [label="x[2] <= 70.5\nsquared_error = 317.188\nsamples = 4\nvalue = 152.75"] ;
303 -> 304 ;
305 [label="x[5] <= -3.25\nsquared_error = 2.667\nsamples = 3\nvalue = 163.0"] ;
304 -> 305 ;
306 [label="squared_error = 0.0\nsamples = 1\nvalue = 165.0"] ;
305 -> 306 ;
307 [label="x[4] <= 508.5\nsquared_error = 1.0\nsamples = 2\nvalue = 162.0"] ;
305 -> 307 ;
308 [label="squared_error = 0.0\nsamples = 1\nvalue = 163.0"] ;
307 -> 308 ;
309 [label="squared_error = 0.0\nsamples = 1\nvalue = 161.0"] ;
307 -> 309 ;
310 [label="squared_error = 0.0\nsamples = 1\nvalue = 122.0"] ;
304 -> 310 ;
311 [label="x[2] <= 65.5\nsquared_error = 1567.484\nsamples = 8\nvalue = 234.375"] ;
303 -> 311 ;
312 [label="x[1] <= 3.65\nsquared_error = 342.25\nsamples = 2\nvalue = 286.5"] ;
311 -> 312 ;
313 [label="squared_error = 0.0\nsamples = 1\nvalue = 268.0"] ;
312 -> 313 ;
314 [label="squared_error = 0.0\nsamples = 1\nvalue = 305.0"] ;
312 -> 314 ;
315 [label="x[9] <= 5.5\nsquared_error = 768.333\nsamples = 6\nvalue = 217.0"] ;
311 -> 315 ;
316 [label="x[2] <= 81.5\nsquared_error = 213.5\nsamples = 4\nvalue = 234.0"] ;
315 -> 316 ;
317 [label="x[3] <= 1.15\nsquared_error = 106.889\nsamples = 3\nvalue = 227.333"] ;
316 -> 317 ;
318 [label="squared_error = 0.0\nsamples = 1\nvalue = 241.0"] ;
317 -> 318 ;
319 [label="x[5] <= 3.2\nsquared_error = 20.25\nsamples = 2\nvalue = 220.5"] ;
317 -> 319 ;
320 [label="squared_error = 0.0\nsamples = 1\nvalue = 216.0"] ;
319 -> 320 ;
321 [label="squared_error = 0.0\nsamples = 1\nvalue = 225.0"] ;
319 -> 321 ;
322 [label="squared_error = 0.0\nsamples = 1\nvalue = 254.0"] ;
316 -> 322 ;
323 [label="x[3] <= 1.4\nsquared_error = 144.0\nsamples = 2\nvalue = 183.0"] ;
315 -> 323 ;
324 [label="squared_error = 0.0\nsamples = 1\nvalue = 195.0"] ;
323 -> 324 ;
325 [label="squared_error = 0.0\nsamples = 1\nvalue = 171.0"] ;
323 -> 325 ;
326 [label="x[0] <= 3.5\nsquared_error = 881.017\nsamples = 45\nvalue = 94.778"] ;
296 -> 326 ;
327 [label="x[9] <= 4.5\nsquared_error = 1237.129\nsamples = 15\nvalue = 115.733"] ;
326 -> 327 ;
328 [label="x[5] <= -7.05\nsquared_error = 858.321\nsamples = 9\nvalue = 95.889"] ;
327 -> 328 ;
329 [label="x[4] <= 1779.5\nsquared_error = 188.222\nsamples = 3\nvalue = 63.667"] ;
328 -> 329 ;
330 [label="x[4] <= 1503.5\nsquared_error = 30.25\nsamples = 2\nvalue = 54.5"] ;
329 -> 330 ;
331 [label="squared_error = 0.0\nsamples = 1\nvalue = 60.0"] ;
330 -> 331 ;
332 [label="squared_error = 0.0\nsamples = 1\nvalue = 49.0"] ;
330 -> 332 ;
333 [label="squared_error = 0.0\nsamples = 1\nvalue = 82.0"] ;
329 -> 333 ;
334 [label="x[5] <= 0.95\nsquared_error = 414.667\nsamples = 6\nvalue = 112.0"] ;
328 -> 334 ;
335 [label="x[4] <= 1355.5\nsquared_error = 29.188\nsamples = 4\nvalue = 98.75"] ;
334 -> 335 ;
336 [label="x[9] <= 2.5\nsquared_error = 1.0\nsamples = 2\nvalue = 104.0"] ;
335 -> 336 ;
337 [label="squared_error = 0.0\nsamples = 1\nvalue = 103.0"] ;
336 -> 337 ;
338 [label="squared_error = 0.0\nsamples = 1\nvalue = 105.0"] ;
336 -> 338 ;
339 [label="x[9] <= 1.5\nsquared_error = 2.25\nsamples = 2\nvalue = 93.5"] ;
335 -> 339 ;
340 [label="squared_error = 0.0\nsamples = 1\nvalue = 95.0"] ;
339 -> 340 ;
341 [label="squared_error = 0.0\nsamples = 1\nvalue = 92.0"] ;
339 -> 341 ;
342 [label="x[4] <= 380.5\nsquared_error = 132.25\nsamples = 2\nvalue = 138.5"] ;
334 -> 342 ;
343 [label="squared_error = 0.0\nsamples = 1\nvalue = 127.0"] ;
342 -> 343 ;
344 [label="squared_error = 0.0\nsamples = 1\nvalue = 150.0"] ;
342 -> 344 ;
345 [label="x[4] <= 892.0\nsquared_error = 328.583\nsamples = 6\nvalue = 145.5"] ;
327 -> 345 ;
346 [label="x[3] <= 1.25\nsquared_error = 128.0\nsamples = 3\nvalue = 131.0"] ;
345 -> 346 ;
347 [label="squared_error = 0.0\nsamples = 2\nvalue = 139.0"] ;
346 -> 347 ;
348 [label="squared_error = 0.0\nsamples = 1\nvalue = 115.0"] ;
346 -> 348 ;
349 [label="x[9] <= 5.5\nsquared_error = 108.667\nsamples = 3\nvalue = 160.0"] ;
345 -> 349 ;
350 [label="x[5] <= -8.6\nsquared_error = 16.0\nsamples = 2\nvalue = 153.0"] ;
349 -> 350 ;
351 [label="squared_error = 0.0\nsamples = 1\nvalue = 149.0"] ;
350 -> 351 ;
352 [label="squared_error = 0.0\nsamples = 1\nvalue = 157.0"] ;
350 -> 352 ;
353 [label="squared_error = 0.0\nsamples = 1\nvalue = 174.0"] ;
349 -> 353 ;
354 [label="x[1] <= 7.0\nsquared_error = 373.61\nsamples = 30\nvalue = 84.3"] ;
326 -> 354 ;
355 [label="x[5] <= -11.2\nsquared_error = 290.498\nsamples = 24\nvalue = 78.542"] ;
354 -> 355 ;
356 [label="x[4] <= 1507.5\nsquared_error = 16.0\nsamples = 2\nvalue = 51.0"] ;
355 -> 356 ;
357 [label="squared_error = 0.0\nsamples = 1\nvalue = 55.0"] ;
356 -> 357 ;
358 [label="squared_error = 0.0\nsamples = 1\nvalue = 47.0"] ;
356 -> 358 ;
359 [label="x[1] <= 2.35\nsquared_error = 240.225\nsamples = 22\nvalue = 81.045"] ;
355 -> 359 ;
360 [label="x[9] <= 3.0\nsquared_error = 74.5\nsamples = 8\nvalue = 87.5"] ;
359 -> 360 ;
361 [label="x[0] <= 4.5\nsquared_error = 0.222\nsamples = 3\nvalue = 79.667"] ;
360 -> 361 ;
362 [label="squared_error = 0.0\nsamples = 1\nvalue = 79.0"] ;
361 -> 362 ;
363 [label="squared_error = 0.0\nsamples = 2\nvalue = 80.0"] ;
361 -> 363 ;
364 [label="x[3] <= 0.45\nsquared_error = 60.16\nsamples = 5\nvalue = 92.2"] ;
360 -> 364 ;
365 [label="squared_error = 0.0\nsamples = 1\nvalue = 79.0"] ;
364 -> 365 ;
366 [label="x[4] <= 1799.5\nsquared_error = 20.75\nsamples = 4\nvalue = 95.5"] ;
364 -> 366 ;
367 [label="x[4] <= 586.5\nsquared_error = 2.667\nsamples = 3\nvalue = 93.0"] ;
366 -> 367 ;
368 [label="squared_error = 0.0\nsamples = 1\nvalue = 95.0"] ;
367 -> 368 ;
369 [label="x[2] <= 62.0\nsquared_error = 1.0\nsamples = 2\nvalue = 92.0"] ;
367 -> 369 ;
370 [label="squared_error = 0.0\nsamples = 1\nvalue = 93.0"] ;
369 -> 370 ;
371 [label="squared_error = 0.0\nsamples = 1\nvalue = 91.0"] ;
369 -> 371 ;
372 [label="squared_error = 0.0\nsamples = 1\nvalue = 103.0"] ;
366 -> 372 ;
373 [label="x[1] <= 3.05\nsquared_error = 297.515\nsamples = 14\nvalue = 77.357"] ;
359 -> 373 ;
374 [label="x[0] <= 4.5\nsquared_error = 401.188\nsamples = 4\nvalue = 64.75"] ;
373 -> 374 ;
375 [label="x[4] <= 826.0\nsquared_error = 72.667\nsamples = 3\nvalue = 54.0"] ;
374 -> 375 ;
376 [label="squared_error = 0.0\nsamples = 1\nvalue = 66.0"] ;
375 -> 376 ;
377 [label="x[3] <= 1.15\nsquared_error = 1.0\nsamples = 2\nvalue = 48.0"] ;
375 -> 377 ;
378 [label="squared_error = 0.0\nsamples = 1\nvalue = 47.0"] ;
377 -> 378 ;
379 [label="squared_error = 0.0\nsamples = 1\nvalue = 49.0"] ;
377 -> 379 ;
380 [label="squared_error = 0.0\nsamples = 1\nvalue = 97.0"] ;
374 -> 380 ;
381 [label="x[1] <= 4.25\nsquared_error = 167.04\nsamples = 10\nvalue = 82.4"] ;
373 -> 381 ;
382 [label="x[3] <= 1.75\nsquared_error = 49.0\nsamples = 2\nvalue = 99.0"] ;
381 -> 382 ;
383 [label="squared_error = 0.0\nsamples = 1\nvalue = 106.0"] ;
382 -> 383 ;
384 [label="squared_error = 0.0\nsamples = 1\nvalue = 92.0"] ;
382 -> 384 ;
385 [label="x[3] <= 0.75\nsquared_error = 110.438\nsamples = 8\nvalue = 78.25"] ;
381 -> 385 ;
386 [label="squared_error = 0.0\nsamples = 1\nvalue = 60.0"] ;
385 -> 386 ;
387 [label="x[2] <= 57.0\nsquared_error = 71.837\nsamples = 7\nvalue = 80.857"] ;
385 -> 387 ;
388 [label="x[4] <= 775.5\nsquared_error = 44.222\nsamples = 3\nvalue = 72.667"] ;
387 -> 388 ;
389 [label="squared_error = 0.0\nsamples = 1\nvalue = 82.0"] ;
388 -> 389 ;
390 [label="x[3] <= 2.15\nsquared_error = 1.0\nsamples = 2\nvalue = 68.0"] ;
388 -> 390 ;
391 [label="squared_error = 0.0\nsamples = 1\nvalue = 67.0"] ;
390 -> 391 ;
392 [label="squared_error = 0.0\nsamples = 1\nvalue = 69.0"] ;
390 -> 392 ;
393 [label="x[4] <= 1246.5\nsquared_error = 4.5\nsamples = 4\nvalue = 87.0"] ;
387 -> 393 ;
394 [label="x[2] <= 70.5\nsquared_error = 1.0\nsamples = 2\nvalue = 89.0"] ;
393 -> 394 ;
395 [label="squared_error = 0.0\nsamples = 1\nvalue = 88.0"] ;
394 -> 395 ;
396 [label="squared_error = 0.0\nsamples = 1\nvalue = 90.0"] ;
394 -> 396 ;
397 [label="squared_error = 0.0\nsamples = 2\nvalue = 85.0"] ;
393 -> 397 ;
398 [label="x[1] <= 7.9\nsquared_error = 42.889\nsamples = 6\nvalue = 107.333"] ;
354 -> 398 ;
399 [label="squared_error = 0.0\nsamples = 1\nvalue = 95.0"] ;
398 -> 399 ;
400 [label="x[2] <= 62.5\nsquared_error = 14.96\nsamples = 5\nvalue = 109.8"] ;
398 -> 400 ;
401 [label="squared_error = 0.0\nsamples = 1\nvalue = 117.0"] ;
400 -> 401 ;
402 [label="x[4] <= 405.0\nsquared_error = 2.5\nsamples = 4\nvalue = 108.0"] ;
400 -> 402 ;
403 [label="x[2] <= 81.5\nsquared_error = 0.25\nsamples = 2\nvalue = 106.5"] ;
402 -> 403 ;
404 [label="squared_error = 0.0\nsamples = 1\nvalue = 107.0"] ;
403 -> 404 ;
405 [label="squared_error = 0.0\nsamples = 1\nvalue = 106.0"] ;
403 -> 405 ;
406 [label="x[3] <= 0.5\nsquared_error = 0.25\nsamples = 2\nvalue = 109.5"] ;
402 -> 406 ;
407 [label="squared_error = 0.0\nsamples = 1\nvalue = 109.0"] ;
406 -> 407 ;
408 [label="squared_error = 0.0\nsamples = 1\nvalue = 110.0"] ;
406 -> 408 ;
409 [label="x[9] <= 4.5\nsquared_error = 4851.515\nsamples = 14\nvalue = 194.357"] ;
295 -> 409 ;
410 [label="x[1] <= -3.7\nsquared_error = 1364.25\nsamples = 10\nvalue = 232.5"] ;
409 -> 410 ;
411 [label="squared_error = 0.0\nsamples = 1\nvalue = 135.0"] ;
410 -> 411 ;
412 [label="x[4] <= 1249.0\nsquared_error = 342.222\nsamples = 9\nvalue = 243.333"] ;
410 -> 412 ;
413 [label="x[5] <= 8.35\nsquared_error = 185.806\nsamples = 6\nvalue = 253.167"] ;
412 -> 413 ;
414 [label="x[3] <= 0.65\nsquared_error = 118.8\nsamples = 5\nvalue = 249.0"] ;
413 -> 414 ;
415 [label="squared_error = 0.0\nsamples = 1\nvalue = 231.0"] ;
414 -> 415 ;
416 [label="x[9] <= 3.0\nsquared_error = 47.25\nsamples = 4\nvalue = 253.5"] ;
414 -> 416 ;
417 [label="x[9] <= 0.5\nsquared_error = 14.0\nsamples = 3\nvalue = 257.0"] ;
416 -> 417 ;
418 [label="squared_error = 0.0\nsamples = 1\nvalue = 261.0"] ;
417 -> 418 ;
419 [label="x[5] <= 3.15\nsquared_error = 9.0\nsamples = 2\nvalue = 255.0"] ;
417 -> 419 ;
420 [label="squared_error = 0.0\nsamples = 1\nvalue = 252.0"] ;
419 -> 420 ;
421 [label="squared_error = 0.0\nsamples = 1\nvalue = 258.0"] ;
419 -> 421 ;
422 [label="squared_error = 0.0\nsamples = 1\nvalue = 243.0"] ;
416 -> 422 ;
423 [label="squared_error = 0.0\nsamples = 1\nvalue = 274.0"] ;
413 -> 423 ;
424 [label="x[5] <= -6.0\nsquared_error = 74.889\nsamples = 3\nvalue = 223.667"] ;
412 -> 424 ;
425 [label="squared_error = 0.0\nsamples = 1\nvalue = 235.0"] ;
424 -> 425 ;
426 [label="x[9] <= 2.5\nsquared_error = 16.0\nsamples = 2\nvalue = 218.0"] ;
424 -> 426 ;
427 [label="squared_error = 0.0\nsamples = 1\nvalue = 214.0"] ;
426 -> 427 ;
428 [label="squared_error = 0.0\nsamples = 1\nvalue = 222.0"] ;
426 -> 428 ;
429 [label="x[2] <= 76.5\nsquared_error = 839.5\nsamples = 4\nvalue = 99.0"] ;
409 -> 429 ;
430 [label="x[2] <= 69.0\nsquared_error = 272.25\nsamples = 2\nvalue = 125.5"] ;
429 -> 430 ;
431 [label="squared_error = 0.0\nsamples = 1\nvalue = 109.0"] ;
430 -> 431 ;
432 [label="squared_error = 0.0\nsamples = 1\nvalue = 142.0"] ;
430 -> 432 ;
433 [label="x[5] <= -0.1\nsquared_error = 2.25\nsamples = 2\nvalue = 72.5"] ;
429 -> 433 ;
434 [label="squared_error = 0.0\nsamples = 1\nvalue = 74.0"] ;
433 -> 434 ;
435 [label="squared_error = 0.0\nsamples = 1\nvalue = 71.0"] ;
433 -> 435 ;
436 [label="x[1] <= 2.1\nsquared_error = 3197.976\nsamples = 29\nvalue = 58.241"] ;
294 -> 436 ;
437 [label="x[1] <= 1.4\nsquared_error = 2014.56\nsamples = 5\nvalue = 123.2"] ;
436 -> 437 ;
438 [label="x[4] <= 874.5\nsquared_error = 192.889\nsamples = 3\nvalue = 87.667"] ;
437 -> 438 ;
439 [label="squared_error = 0.0\nsamples = 1\nvalue = 107.0"] ;
438 -> 439 ;
440 [label="x[2] <= 87.5\nsquared_error = 9.0\nsamples = 2\nvalue = 78.0"] ;
438 -> 440 ;
441 [label="squared_error = 0.0\nsamples = 1\nvalue = 75.0"] ;
440 -> 441 ;
442 [label="squared_error = 0.0\nsamples = 1\nvalue = 81.0"] ;
440 -> 442 ;
443 [label="x[5] <= 0.5\nsquared_error = 12.25\nsamples = 2\nvalue = 176.5"] ;
437 -> 443 ;
444 [label="squared_error = 0.0\nsamples = 1\nvalue = 173.0"] ;
443 -> 444 ;
445 [label="squared_error = 0.0\nsamples = 1\nvalue = 180.0"] ;
443 -> 445 ;
446 [label="x[4] <= 142.5\nsquared_error = 2382.29\nsamples = 24\nvalue = 44.708"] ;
436 -> 446 ;
447 [label="x[0] <= 5.5\nsquared_error = 3689.2\nsamples = 5\nvalue = 109.0"] ;
446 -> 447 ;
448 [label="x[3] <= 1.55\nsquared_error = 260.25\nsamples = 4\nvalue = 79.5"] ;
447 -> 448 ;
449 [label="x[2] <= 96.0\nsquared_error = 6.25\nsamples = 2\nvalue = 95.5"] ;
448 -> 449 ;
450 [label="squared_error = 0.0\nsamples = 1\nvalue = 93.0"] ;
449 -> 450 ;
451 [label="squared_error = 0.0\nsamples = 1\nvalue = 98.0"] ;
449 -> 451 ;
452 [label="x[4] <= 62.5\nsquared_error = 2.25\nsamples = 2\nvalue = 63.5"] ;
448 -> 452 ;
453 [label="squared_error = 0.0\nsamples = 1\nvalue = 65.0"] ;
452 -> 453 ;
454 [label="squared_error = 0.0\nsamples = 1\nvalue = 62.0"] ;
452 -> 454 ;
455 [label="squared_error = 0.0\nsamples = 1\nvalue = 227.0"] ;
447 -> 455 ;
456 [label="x[3] <= 0.5\nsquared_error = 664.377\nsamples = 19\nvalue = 27.789"] ;
446 -> 456 ;
457 [label="x[0] <= 3.5\nsquared_error = 888.688\nsamples = 4\nvalue = 62.75"] ;
456 -> 457 ;
458 [label="x[0] <= 2.5\nsquared_error = 6.25\nsamples = 2\nvalue = 92.5"] ;
457 -> 458 ;
459 [label="squared_error = 0.0\nsamples = 1\nvalue = 95.0"] ;
458 -> 459 ;
460 [label="squared_error = 0.0\nsamples = 1\nvalue = 90.0"] ;
458 -> 460 ;
461 [label="x[5] <= 4.7\nsquared_error = 1.0\nsamples = 2\nvalue = 33.0"] ;
457 -> 461 ;
462 [label="squared_error = 0.0\nsamples = 1\nvalue = 32.0"] ;
461 -> 462 ;
463 [label="squared_error = 0.0\nsamples = 1\nvalue = 34.0"] ;
461 -> 463 ;
464 [label="x[5] <= 1.4\nsquared_error = 191.716\nsamples = 15\nvalue = 18.467"] ;
456 -> 464 ;
465 [label="squared_error = 0.0\nsamples = 1\nvalue = 63.0"] ;
464 -> 465 ;
466 [label="x[2] <= 89.5\nsquared_error = 53.633\nsamples = 14\nvalue = 15.286"] ;
464 -> 466 ;
467 [label="x[5] <= 4.55\nsquared_error = 43.102\nsamples = 7\nvalue = 19.571"] ;
466 -> 467 ;
468 [label="x[4] <= 484.5\nsquared_error = 13.36\nsamples = 5\nvalue = 23.2"] ;
467 -> 468 ;
469 [label="x[0] <= 3.5\nsquared_error = 0.25\nsamples = 2\nvalue = 27.5"] ;
468 -> 469 ;
470 [label="squared_error = 0.0\nsamples = 1\nvalue = 28.0"] ;
469 -> 470 ;
471 [label="squared_error = 0.0\nsamples = 1\nvalue = 27.0"] ;
469 -> 471 ;
472 [label="x[2] <= 88.5\nsquared_error = 1.556\nsamples = 3\nvalue = 20.333"] ;
468 -> 472 ;
473 [label="x[2] <= 87.5\nsquared_error = 0.25\nsamples = 2\nvalue = 19.5"] ;
472 -> 473 ;
474 [label="squared_error = 0.0\nsamples = 1\nvalue = 20.0"] ;
473 -> 474 ;
475 [label="squared_error = 0.0\nsamples = 1\nvalue = 19.0"] ;
473 -> 475 ;
476 [label="squared_error = 0.0\nsamples = 1\nvalue = 22.0"] ;
472 -> 476 ;
477 [label="x[7] <= 0.15\nsquared_error = 2.25\nsamples = 2\nvalue = 10.5"] ;
467 -> 477 ;
478 [label="squared_error = 0.0\nsamples = 1\nvalue = 9.0"] ;
477 -> 478 ;
479 [label="squared_error = 0.0\nsamples = 1\nvalue = 12.0"] ;
477 -> 479 ;
480 [label="x[1] <= 7.45\nsquared_error = 27.429\nsamples = 7\nvalue = 11.0"] ;
466 -> 480 ;
481 [label="x[4] <= 453.0\nsquared_error = 12.24\nsamples = 5\nvalue = 8.4"] ;
480 -> 481 ;
482 [label="x[9] <= 1.5\nsquared_error = 1.556\nsamples = 3\nvalue = 10.667"] ;
481 -> 482 ;
483 [label="squared_error = 0.0\nsamples = 1\nvalue = 9.0"] ;
482 -> 483 ;
484 [label="x[4] <= 405.0\nsquared_error = 0.25\nsamples = 2\nvalue = 11.5"] ;
482 -> 484 ;
485 [label="squared_error = 0.0\nsamples = 1\nvalue = 11.0"] ;
484 -> 485 ;
486 [label="squared_error = 0.0\nsamples = 1\nvalue = 12.0"] ;
484 -> 486 ;
487 [label="x[7] <= 0.75\nsquared_error = 9.0\nsamples = 2\nvalue = 5.0"] ;
481 -> 487 ;
488 [label="squared_error = 0.0\nsamples = 1\nvalue = 8.0"] ;
487 -> 488 ;
489 [label="squared_error = 0.0\nsamples = 1\nvalue = 2.0"] ;
487 -> 489 ;
490 [label="x[1] <= 8.7\nsquared_error = 6.25\nsamples = 2\nvalue = 17.5"] ;
480 -> 490 ;
491 [label="squared_error = 0.0\nsamples = 1\nvalue = 20.0"] ;
490 -> 491 ;
492 [label="squared_error = 0.0\nsamples = 1\nvalue = 15.0"] ;
490 -> 492 ;
493 [label="x[18] <= 0.5\nsquared_error = 17935.601\nsamples = 311\nvalue = 209.9"] ;
293 -> 493 ;
494 [label="squared_error = 0.0\nsamples = 20\nvalue = 0.0"] ;
493 -> 494 ;
495 [label="x[0] <= 2.5\nsquared_error = 15932.124\nsamples = 291\nvalue = 224.326"] ;
493 -> 495 ;
496 [label="x[9] <= 3.5\nsquared_error = 11254.31\nsamples = 56\nvalue = 330.607"] ;
495 -> 496 ;
497 [label="x[9] <= 0.5\nsquared_error = 6578.101\nsamples = 33\nvalue = 281.667"] ;
496 -> 497 ;
498 [label="x[1] <= 9.65\nsquared_error = 1976.49\nsamples = 7\nvalue = 209.714"] ;
497 -> 498 ;
499 [label="x[2] <= 64.5\nsquared_error = 927.688\nsamples = 4\nvalue = 177.25"] ;
498 -> 499 ;
500 [label="squared_error = 0.0\nsamples = 1\nvalue = 126.0"] ;
499 -> 500 ;
501 [label="x[1] <= 7.1\nsquared_error = 69.556\nsamples = 3\nvalue = 194.333"] ;
499 -> 501 ;
502 [label="x[2] <= 65.5\nsquared_error = 2.25\nsamples = 2\nvalue = 188.5"] ;
501 -> 502 ;
503 [label="squared_error = 0.0\nsamples = 1\nvalue = 190.0"] ;
502 -> 503 ;
504 [label="squared_error = 0.0\nsamples = 1\nvalue = 187.0"] ;
502 -> 504 ;
505 [label="squared_error = 0.0\nsamples = 1\nvalue = 206.0"] ;
501 -> 505 ;
506 [label="x[4] <= 1014.0\nsquared_error = 96.0\nsamples = 3\nvalue = 253.0"] ;
498 -> 506 ;
507 [label="squared_error = 0.0\nsamples = 1\nvalue = 241.0"] ;
506 -> 507 ;
508 [label="x[1] <= 10.8\nsquared_error = 36.0\nsamples = 2\nvalue = 259.0"] ;
506 -> 508 ;
509 [label="squared_error = 0.0\nsamples = 1\nvalue = 253.0"] ;
508 -> 509 ;
510 [label="squared_error = 0.0\nsamples = 1\nvalue = 265.0"] ;
508 -> 510 ;
511 [label="x[3] <= 1.05\nsquared_error = 6047.883\nsamples = 26\nvalue = 301.038"] ;
497 -> 511 ;
512 [label="x[1] <= 8.95\nsquared_error = 5321.524\nsamples = 19\nvalue = 324.053"] ;
511 -> 512 ;
513 [label="x[5] <= 4.25\nsquared_error = 3698.576\nsamples = 12\nvalue = 283.917"] ;
512 -> 513 ;
514 [label="x[12] <= 0.5\nsquared_error = 1654.727\nsamples = 11\nvalue = 298.0"] ;
513 -> 514 ;
515 [label="x[1] <= 6.75\nsquared_error = 1087.837\nsamples = 7\nvalue = 320.143"] ;
514 -> 515 ;
516 [label="x[4] <= 1990.5\nsquared_error = 300.8\nsamples = 5\nvalue = 303.0"] ;
515 -> 516 ;
517 [label="x[4] <= 941.5\nsquared_error = 138.667\nsamples = 3\nvalue = 315.0"] ;
516 -> 517 ;
518 [label="squared_error = 0.0\nsamples = 1\nvalue = 299.0"] ;
517 -> 518 ;
519 [label="x[9] <= 2.5\nsquared_error = 16.0\nsamples = 2\nvalue = 323.0"] ;
517 -> 519 ;
520 [label="squared_error = 0.0\nsamples = 1\nvalue = 327.0"] ;
519 -> 520 ;
521 [label="squared_error = 0.0\nsamples = 1\nvalue = 319.0"] ;
519 -> 521 ;
522 [label="x[2] <= 60.5\nsquared_error = 4.0\nsamples = 2\nvalue = 285.0"] ;
516 -> 522 ;
523 [label="squared_error = 0.0\nsamples = 1\nvalue = 283.0"] ;
522 -> 523 ;
524 [label="squared_error = 0.0\nsamples = 1\nvalue = 287.0"] ;
522 -> 524 ;
525 [label="x[1] <= 7.9\nsquared_error = 484.0\nsamples = 2\nvalue = 363.0"] ;
515 -> 525 ;
526 [label="squared_error = 0.0\nsamples = 1\nvalue = 341.0"] ;
525 -> 526 ;
527 [label="squared_error = 0.0\nsamples = 1\nvalue = 385.0"] ;
525 -> 527 ;
528 [label="x[9] <= 2.0\nsquared_error = 287.188\nsamples = 4\nvalue = 259.25"] ;
514 -> 528 ;
529 [label="x[4] <= 1738.5\nsquared_error = 42.25\nsamples = 2\nvalue = 243.5"] ;
528 -> 529 ;
530 [label="squared_error = 0.0\nsamples = 1\nvalue = 250.0"] ;
529 -> 530 ;
531 [label="squared_error = 0.0\nsamples = 1\nvalue = 237.0"] ;
529 -> 531 ;
532 [label="x[1] <= 8.45\nsquared_error = 36.0\nsamples = 2\nvalue = 275.0"] ;
528 -> 532 ;
533 [label="squared_error = 0.0\nsamples = 1\nvalue = 269.0"] ;
532 -> 533 ;
534 [label="squared_error = 0.0\nsamples = 1\nvalue = 281.0"] ;
532 -> 534 ;
535 [label="squared_error = 0.0\nsamples = 1\nvalue = 129.0"] ;
513 -> 535 ;
536 [label="x[4] <= 965.5\nsquared_error = 608.122\nsamples = 7\nvalue = 392.857"] ;
512 -> 536 ;
537 [label="x[1] <= 10.05\nsquared_error = 56.25\nsamples = 2\nvalue = 363.5"] ;
536 -> 537 ;
538 [label="squared_error = 0.0\nsamples = 1\nvalue = 371.0"] ;
537 -> 538 ;
539 [label="squared_error = 0.0\nsamples = 1\nvalue = 356.0"] ;
537 -> 539 ;
540 [label="x[5] <= 6.65\nsquared_error = 346.24\nsamples = 5\nvalue = 404.6"] ;
536 -> 540 ;
541 [label="x[5] <= 3.5\nsquared_error = 258.75\nsamples = 4\nvalue = 410.5"] ;
540 -> 541 ;
542 [label="squared_error = 0.0\nsamples = 1\nvalue = 385.0"] ;
541 -> 542 ;
543 [label="x[4] <= 1709.0\nsquared_error = 56.0\nsamples = 3\nvalue = 419.0"] ;
541 -> 543 ;
544 [label="x[9] <= 2.0\nsquared_error = 9.0\nsamples = 2\nvalue = 424.0"] ;
543 -> 544 ;
545 [label="squared_error = 0.0\nsamples = 1\nvalue = 427.0"] ;
544 -> 545 ;
546 [label="squared_error = 0.0\nsamples = 1\nvalue = 421.0"] ;
544 -> 546 ;
547 [label="squared_error = 0.0\nsamples = 1\nvalue = 409.0"] ;
543 -> 547 ;
548 [label="squared_error = 0.0\nsamples = 1\nvalue = 381.0"] ;
540 -> 548 ;
549 [label="x[5] <= 7.1\nsquared_error = 2679.673\nsamples = 7\nvalue = 238.571"] ;
511 -> 549 ;
550 [label="x[12] <= 0.5\nsquared_error = 484.0\nsamples = 6\nvalue = 258.0"] ;
549 -> 550 ;
551 [label="x[5] <= -8.7\nsquared_error = 40.222\nsamples = 3\nvalue = 277.333"] ;
550 -> 551 ;
552 [label="x[9] <= 2.5\nsquared_error = 4.0\nsamples = 2\nvalue = 273.0"] ;
551 -> 552 ;
553 [label="squared_error = 0.0\nsamples = 1\nvalue = 275.0"] ;
552 -> 553 ;
554 [label="squared_error = 0.0\nsamples = 1\nvalue = 271.0"] ;
552 -> 554 ;
555 [label="squared_error = 0.0\nsamples = 1\nvalue = 286.0"] ;
551 -> 555 ;
556 [label="x[3] <= 1.9\nsquared_error = 180.222\nsamples = 3\nvalue = 238.667"] ;
550 -> 556 ;
557 [label="x[9] <= 2.5\nsquared_error = 9.0\nsamples = 2\nvalue = 248.0"] ;
556 -> 557 ;
558 [label="squared_error = 0.0\nsamples = 1\nvalue = 245.0"] ;
557 -> 558 ;
559 [label="squared_error = 0.0\nsamples = 1\nvalue = 251.0"] ;
557 -> 559 ;
560 [label="squared_error = 0.0\nsamples = 1\nvalue = 220.0"] ;
556 -> 560 ;
561 [label="squared_error = 0.0\nsamples = 1\nvalue = 122.0"] ;
549 -> 561 ;
562 [label="x[1] <= 6.9\nsquared_error = 9596.405\nsamples = 23\nvalue = 400.826"] ;
496 -> 562 ;
563 [label="x[3] <= 0.65\nsquared_error = 5396.688\nsamples = 8\nvalue = 312.25"] ;
562 -> 563 ;
564 [label="x[3] <= 0.45\nsquared_error = 1640.25\nsamples = 2\nvalue = 409.5"] ;
563 -> 564 ;
565 [label="squared_error = 0.0\nsamples = 1\nvalue = 450.0"] ;
564 -> 565 ;
566 [label="squared_error = 0.0\nsamples = 1\nvalue = 369.0"] ;
564 -> 566 ;
567 [label="x[10] <= 7.5\nsquared_error = 2445.472\nsamples = 6\nvalue = 279.833"] ;
563 -> 567 ;
568 [label="x[1] <= 4.45\nsquared_error = 992.25\nsamples = 2\nvalue = 222.5"] ;
567 -> 568 ;
569 [label="squared_error = 0.0\nsamples = 1\nvalue = 191.0"] ;
568 -> 569 ;
570 [label="squared_error = 0.0\nsamples = 1\nvalue = 254.0"] ;
568 -> 570 ;
571 [label="x[9] <= 4.5\nsquared_error = 706.75\nsamples = 4\nvalue = 308.5"] ;
567 -> 571 ;
572 [label="squared_error = 0.0\nsamples = 1\nvalue = 279.0"] ;
571 -> 572 ;
573 [label="x[3] <= 1.3\nsquared_error = 555.556\nsamples = 3\nvalue = 318.333"] ;
571 -> 573 ;
574 [label="squared_error = 0.0\nsamples = 1\nvalue = 285.0"] ;
573 -> 574 ;
575 [label="squared_error = 0.0\nsamples = 2\nvalue = 335.0"] ;
573 -> 575 ;
576 [label="x[9] <= 5.5\nsquared_error = 5420.196\nsamples = 15\nvalue = 448.067"] ;
562 -> 576 ;
577 [label="x[9] <= 4.5\nsquared_error = 4011.743\nsamples = 12\nvalue = 470.917"] ;
576 -> 577 ;
578 [label="x[11] <= 0.5\nsquared_error = 857.2\nsamples = 5\nvalue = 403.0"] ;
577 -> 578 ;
579 [label="x[10] <= 4.5\nsquared_error = 72.25\nsamples = 2\nvalue = 369.5"] ;
578 -> 579 ;
580 [label="squared_error = 0.0\nsamples = 1\nvalue = 361.0"] ;
579 -> 580 ;
581 [label="squared_error = 0.0\nsamples = 1\nvalue = 378.0"] ;
579 -> 581 ;
582 [label="x[3] <= 0.75\nsquared_error = 133.556\nsamples = 3\nvalue = 425.333"] ;
578 -> 582 ;
583 [label="squared_error = 0.0\nsamples = 1\nvalue = 409.0"] ;
582 -> 583 ;
584 [label="x[5] <= 4.65\nsquared_error = 0.25\nsamples = 2\nvalue = 433.5"] ;
582 -> 584 ;
585 [label="squared_error = 0.0\nsamples = 1\nvalue = 433.0"] ;
584 -> 585 ;
586 [label="squared_error = 0.0\nsamples = 1\nvalue = 434.0"] ;
584 -> 586 ;
587 [label="x[10] <= 10.5\nsquared_error = 616.816\nsamples = 7\nvalue = 519.429"] ;
577 -> 587 ;
588 [label="x[3] <= 2.45\nsquared_error = 260.889\nsamples = 6\nvalue = 511.333"] ;
587 -> 588 ;
589 [label="x[5] <= 5.0\nsquared_error = 46.4\nsamples = 5\nvalue = 518.0"] ;
588 -> 589 ;
590 [label="x[10] <= 7.5\nsquared_error = 4.0\nsamples = 2\nvalue = 510.0"] ;
589 -> 590 ;
591 [label="squared_error = 0.0\nsamples = 1\nvalue = 508.0"] ;
590 -> 591 ;
592 [label="squared_error = 0.0\nsamples = 1\nvalue = 512.0"] ;
590 -> 592 ;
593 [label="x[2] <= 75.0\nsquared_error = 3.556\nsamples = 3\nvalue = 523.333"] ;
589 -> 593 ;
594 [label="squared_error = 0.0\nsamples = 1\nvalue = 526.0"] ;
593 -> 594 ;
595 [label="squared_error = 0.0\nsamples = 2\nvalue = 522.0"] ;
593 -> 595 ;
596 [label="squared_error = 0.0\nsamples = 1\nvalue = 478.0"] ;
588 -> 596 ;
597 [label="squared_error = 0.0\nsamples = 1\nvalue = 568.0"] ;
587 -> 597 ;
598 [label="x[12] <= 0.5\nsquared_error = 611.556\nsamples = 3\nvalue = 356.667"] ;
576 -> 598 ;
599 [label="x[1] <= 8.05\nsquared_error = 16.0\nsamples = 2\nvalue = 374.0"] ;
598 -> 599 ;
600 [label="squared_error = 0.0\nsamples = 1\nvalue = 370.0"] ;
599 -> 600 ;
601 [label="squared_error = 0.0\nsamples = 1\nvalue = 378.0"] ;
599 -> 601 ;
602 [label="squared_error = 0.0\nsamples = 1\nvalue = 322.0"] ;
598 -> 602 ;
603 [label="x[0] <= 5.5\nsquared_error = 13713.694\nsamples = 235\nvalue = 199.0"] ;
495 -> 603 ;
604 [label="x[7] <= 0.05\nsquared_error = 4739.528\nsamples = 175\nvalue = 160.451"] ;
603 -> 604 ;
605 [label="x[0] <= 3.5\nsquared_error = 3754.809\nsamples = 161\nvalue = 170.509"] ;
604 -> 605 ;
606 [label="x[9] <= 0.5\nsquared_error = 4406.359\nsamples = 48\nvalue = 220.875"] ;
605 -> 606 ;
607 [label="x[1] <= 7.35\nsquared_error = 1772.688\nsamples = 8\nvalue = 136.25"] ;
606 -> 607 ;
608 [label="x[1] <= 2.0\nsquared_error = 810.688\nsamples = 4\nvalue = 100.25"] ;
607 -> 608 ;
609 [label="squared_error = 0.0\nsamples = 1\nvalue = 52.0"] ;
608 -> 609 ;
610 [label="x[11] <= 0.5\nsquared_error = 46.222\nsamples = 3\nvalue = 116.333"] ;
608 -> 610 ;
611 [label="squared_error = 0.0\nsamples = 1\nvalue = 107.0"] ;
610 -> 611 ;
612 [label="x[4] <= 1134.5\nsquared_error = 4.0\nsamples = 2\nvalue = 121.0"] ;
610 -> 612 ;
613 [label="squared_error = 0.0\nsamples = 1\nvalue = 119.0"] ;
612 -> 613 ;
614 [label="squared_error = 0.0\nsamples = 1\nvalue = 123.0"] ;
612 -> 614 ;
615 [label="x[3] <= 0.65\nsquared_error = 142.688\nsamples = 4\nvalue = 172.25"] ;
607 -> 615 ;
616 [label="x[5] <= 5.9\nsquared_error = 110.25\nsamples = 2\nvalue = 181.5"] ;
615 -> 616 ;
617 [label="squared_error = 0.0\nsamples = 1\nvalue = 192.0"] ;
616 -> 617 ;
618 [label="squared_error = 0.0\nsamples = 1\nvalue = 171.0"] ;
616 -> 618 ;
619 [label="x[4] <= 1321.0\nsquared_error = 4.0\nsamples = 2\nvalue = 163.0"] ;
615 -> 619 ;
620 [label="squared_error = 0.0\nsamples = 1\nvalue = 161.0"] ;
619 -> 620 ;
621 [label="squared_error = 0.0\nsamples = 1\nvalue = 165.0"] ;
619 -> 621 ;
622 [label="x[9] <= 4.5\nsquared_error = 3214.36\nsamples = 40\nvalue = 237.8"] ;
606 -> 622 ;
623 [label="x[2] <= 60.5\nsquared_error = 1064.119\nsamples = 29\nvalue = 218.862"] ;
622 -> 623 ;
624 [label="x[5] <= -1.3\nsquared_error = 238.188\nsamples = 8\nvalue = 186.25"] ;
623 -> 624 ;
625 [label="x[12] <= 0.5\nsquared_error = 144.222\nsamples = 6\nvalue = 179.667"] ;
624 -> 625 ;
626 [label="x[10] <= 10.5\nsquared_error = 29.556\nsamples = 3\nvalue = 189.333"] ;
625 -> 626 ;
627 [label="squared_error = 0.0\nsamples = 1\nvalue = 182.0"] ;
626 -> 627 ;
628 [label="x[9] <= 3.5\nsquared_error = 4.0\nsamples = 2\nvalue = 193.0"] ;
626 -> 628 ;
629 [label="squared_error = 0.0\nsamples = 1\nvalue = 195.0"] ;
628 -> 629 ;
630 [label="squared_error = 0.0\nsamples = 1\nvalue = 191.0"] ;
628 -> 630 ;
631 [label="x[9] <= 2.5\nsquared_error = 72.0\nsamples = 3\nvalue = 170.0"] ;
625 -> 631 ;
632 [label="squared_error = 0.0\nsamples = 2\nvalue = 164.0"] ;
631 -> 632 ;
633 [label="squared_error = 0.0\nsamples = 1\nvalue = 182.0"] ;
631 -> 633 ;
634 [label="squared_error = 0.0\nsamples = 2\nvalue = 206.0"] ;
624 -> 634 ;
635 [label="x[1] <= 7.2\nsquared_error = 819.252\nsamples = 21\nvalue = 231.286"] ;
623 -> 635 ;
636 [label="x[3] <= 1.15\nsquared_error = 840.25\nsamples = 8\nvalue = 212.0"] ;
635 -> 636 ;
637 [label="x[9] <= 1.5\nsquared_error = 256.806\nsamples = 6\nvalue = 226.167"] ;
636 -> 637 ;
638 [label="squared_error = 0.0\nsamples = 1\nvalue = 205.0"] ;
637 -> 638 ;
639 [label="x[4] <= 1353.0\nsquared_error = 200.64\nsamples = 5\nvalue = 230.4"] ;
637 -> 639 ;
640 [label="x[1] <= 3.2\nsquared_error = 9.0\nsamples = 2\nvalue = 216.0"] ;
639 -> 640 ;
641 [label="squared_error = 0.0\nsamples = 1\nvalue = 213.0"] ;
640 -> 641 ;
642 [label="squared_error = 0.0\nsamples = 1\nvalue = 219.0"] ;
640 -> 642 ;
643 [label="x[4] <= 1981.0\nsquared_error = 98.0\nsamples = 3\nvalue = 240.0"] ;
639 -> 643 ;
644 [label="x[4] <= 1665.0\nsquared_error = 20.25\nsamples = 2\nvalue = 246.5"] ;
643 -> 644 ;
645 [label="squared_error = 0.0\nsamples = 1\nvalue = 251.0"] ;
644 -> 645 ;
646 [label="squared_error = 0.0\nsamples = 1\nvalue = 242.0"] ;
644 -> 646 ;
647 [label="squared_error = 0.0\nsamples = 1\nvalue = 227.0"] ;
643 -> 647 ;
648 [label="x[12] <= 0.5\nsquared_error = 182.25\nsamples = 2\nvalue = 169.5"] ;
636 -> 648 ;
649 [label="squared_error = 0.0\nsamples = 1\nvalue = 183.0"] ;
648 -> 649 ;
650 [label="squared_error = 0.0\nsamples = 1\nvalue = 156.0"] ;
648 -> 650 ;
651 [label="x[2] <= 62.0\nsquared_error = 436.592\nsamples = 13\nvalue = 243.154"] ;
635 -> 651 ;
652 [label="x[5] <= 4.1\nsquared_error = 1056.25\nsamples = 2\nvalue = 220.5"] ;
651 -> 652 ;
653 [label="squared_error = 0.0\nsamples = 1\nvalue = 188.0"] ;
652 -> 653 ;
654 [label="squared_error = 0.0\nsamples = 1\nvalue = 253.0"] ;
652 -> 654 ;
655 [label="x[2] <= 65.0\nsquared_error = 213.653\nsamples = 11\nvalue = 247.273"] ;
651 -> 655 ;
656 [label="x[10] <= 4.5\nsquared_error = 8.222\nsamples = 3\nvalue = 261.667"] ;
655 -> 656 ;
657 [label="squared_error = 0.0\nsamples = 1\nvalue = 258.0"] ;
656 -> 657 ;
658 [label="x[2] <= 63.5\nsquared_error = 2.25\nsamples = 2\nvalue = 263.5"] ;
656 -> 658 ;
659 [label="squared_error = 0.0\nsamples = 1\nvalue = 262.0"] ;
658 -> 659 ;
660 [label="squared_error = 0.0\nsamples = 1\nvalue = 265.0"] ;
658 -> 660 ;
661 [label="x[2] <= 70.5\nsquared_error = 183.859\nsamples = 8\nvalue = 241.875"] ;
655 -> 661 ;
662 [label="x[4] <= 1595.5\nsquared_error = 57.556\nsamples = 3\nvalue = 228.333"] ;
661 -> 662 ;
663 [label="squared_error = 0.0\nsamples = 1\nvalue = 239.0"] ;
662 -> 663 ;
664 [label="x[15] <= 0.5\nsquared_error = 1.0\nsamples = 2\nvalue = 223.0"] ;
662 -> 664 ;
665 [label="squared_error = 0.0\nsamples = 1\nvalue = 224.0"] ;
664 -> 665 ;
666 [label="squared_error = 0.0\nsamples = 1\nvalue = 222.0"] ;
664 -> 666 ;
667 [label="x[3] <= 0.25\nsquared_error = 83.6\nsamples = 5\nvalue = 250.0"] ;
661 -> 667 ;
668 [label="squared_error = 0.0\nsamples = 1\nvalue = 266.0"] ;
667 -> 668 ;
669 [label="x[3] <= 0.75\nsquared_error = 24.5\nsamples = 4\nvalue = 246.0"] ;
667 -> 669 ;
670 [label="x[4] <= 1588.0\nsquared_error = 6.25\nsamples = 2\nvalue = 241.5"] ;
669 -> 670 ;
671 [label="squared_error = 0.0\nsamples = 1\nvalue = 239.0"] ;
670 -> 671 ;
672 [label="squared_error = 0.0\nsamples = 1\nvalue = 244.0"] ;
670 -> 672 ;
673 [label="x[3] <= 1.25\nsquared_error = 2.25\nsamples = 2\nvalue = 250.5"] ;
669 -> 673 ;
674 [label="squared_error = 0.0\nsamples = 1\nvalue = 252.0"] ;
673 -> 674 ;
675 [label="squared_error = 0.0\nsamples = 1\nvalue = 249.0"] ;
673 -> 675 ;
676 [label="x[5] <= 3.75\nsquared_error = 5444.926\nsamples = 11\nvalue = 287.727"] ;
622 -> 676 ;
677 [label="x[1] <= 2.25\nsquared_error = 2837.806\nsamples = 6\nvalue = 234.167"] ;
676 -> 677 ;
678 [label="squared_error = 0.0\nsamples = 1\nvalue = 141.0"] ;
677 -> 678 ;
679 [label="x[5] <= 3.4\nsquared_error = 1322.16\nsamples = 5\nvalue = 252.8"] ;
677 -> 679 ;
680 [label="x[3] <= 1.95\nsquared_error = 130.188\nsamples = 4\nvalue = 270.25"] ;
679 -> 680 ;
681 [label="x[9] <= 5.5\nsquared_error = 33.556\nsamples = 3\nvalue = 264.333"] ;
680 -> 681 ;
682 [label="squared_error = 0.0\nsamples = 1\nvalue = 272.0"] ;
681 -> 682 ;
683 [label="x[12] <= 0.5\nsquared_error = 6.25\nsamples = 2\nvalue = 260.5"] ;
681 -> 683 ;
684 [label="squared_error = 0.0\nsamples = 1\nvalue = 258.0"] ;
683 -> 684 ;
685 [label="squared_error = 0.0\nsamples = 1\nvalue = 263.0"] ;
683 -> 685 ;
686 [label="squared_error = 0.0\nsamples = 1\nvalue = 288.0"] ;
680 -> 686 ;
687 [label="squared_error = 0.0\nsamples = 1\nvalue = 183.0"] ;
679 -> 687 ;
688 [label="x[2] <= 75.0\nsquared_error = 1000.0\nsamples = 5\nvalue = 352.0"] ;
676 -> 688 ;
689 [label="x[3] <= 0.85\nsquared_error = 36.0\nsamples = 2\nvalue = 314.0"] ;
688 -> 689 ;
690 [label="squared_error = 0.0\nsamples = 1\nvalue = 308.0"] ;
689 -> 690 ;
691 [label="squared_error = 0.0\nsamples = 1\nvalue = 320.0"] ;
689 -> 691 ;
692 [label="x[3] <= 0.55\nsquared_error = 38.222\nsamples = 3\nvalue = 377.333"] ;
688 -> 692 ;
693 [label="squared_error = 0.0\nsamples = 1\nvalue = 386.0"] ;
692 -> 693 ;
694 [label="x[2] <= 79.5\nsquared_error = 1.0\nsamples = 2\nvalue = 373.0"] ;
692 -> 694 ;
695 [label="squared_error = 0.0\nsamples = 1\nvalue = 374.0"] ;
694 -> 695 ;
696 [label="squared_error = 0.0\nsamples = 1\nvalue = 372.0"] ;
694 -> 696 ;
697 [label="x[2] <= 87.5\nsquared_error = 1942.792\nsamples = 113\nvalue = 149.115"] ;
605 -> 697 ;
698 [label="x[10] <= 4.5\nsquared_error = 1683.651\nsamples = 104\nvalue = 154.442"] ;
697 -> 698 ;
699 [label="x[4] <= 1431.0\nsquared_error = 1278.043\nsamples = 22\nvalue = 123.955"] ;
698 -> 699 ;
700 [label="x[3] <= 0.6\nsquared_error = 579.21\nsamples = 10\nvalue = 142.3"] ;
699 -> 700 ;
701 [label="x[9] <= 5.5\nsquared_error = 169.0\nsamples = 2\nvalue = 109.0"] ;
700 -> 701 ;
702 [label="squared_error = 0.0\nsamples = 1\nvalue = 122.0"] ;
701 -> 702 ;
703 [label="squared_error = 0.0\nsamples = 1\nvalue = 96.0"] ;
701 -> 703 ;
704 [label="x[2] <= 66.0\nsquared_error = 335.234\nsamples = 8\nvalue = 150.625"] ;
700 -> 704 ;
705 [label="x[5] <= 1.1\nsquared_error = 29.556\nsamples = 3\nvalue = 132.333"] ;
704 -> 705 ;
706 [label="squared_error = 0.0\nsamples = 1\nvalue = 125.0"] ;
705 -> 706 ;
707 [label="x[5] <= 3.35\nsquared_error = 4.0\nsamples = 2\nvalue = 136.0"] ;
705 -> 707 ;
708 [label="squared_error = 0.0\nsamples = 1\nvalue = 138.0"] ;
707 -> 708 ;
709 [label="squared_error = 0.0\nsamples = 1\nvalue = 134.0"] ;
707 -> 709 ;
710 [label="x[1] <= 10.45\nsquared_error = 197.44\nsamples = 5\nvalue = 161.6"] ;
704 -> 710 ;
711 [label="x[9] <= 3.5\nsquared_error = 25.0\nsamples = 2\nvalue = 175.0"] ;
710 -> 711 ;
712 [label="squared_error = 0.0\nsamples = 1\nvalue = 180.0"] ;
711 -> 712 ;
713 [label="squared_error = 0.0\nsamples = 1\nvalue = 170.0"] ;
711 -> 713 ;
714 [label="x[3] <= 1.75\nsquared_error = 112.889\nsamples = 3\nvalue = 152.667"] ;
710 -> 714 ;
715 [label="x[0] <= 4.5\nsquared_error = 36.0\nsamples = 2\nvalue = 146.0"] ;
714 -> 715 ;
716 [label="squared_error = 0.0\nsamples = 1\nvalue = 140.0"] ;
715 -> 716 ;
717 [label="squared_error = 0.0\nsamples = 1\nvalue = 152.0"] ;
715 -> 717 ;
718 [label="squared_error = 0.0\nsamples = 1\nvalue = 166.0"] ;
714 -> 718 ;
719 [label="x[2] <= 67.0\nsquared_error = 1346.222\nsamples = 12\nvalue = 108.667"] ;
699 -> 719 ;
720 [label="x[0] <= 4.5\nsquared_error = 566.29\nsamples = 10\nvalue = 120.9"] ;
719 -> 720 ;
721 [label="x[3] <= 0.75\nsquared_error = 125.333\nsamples = 6\nvalue = 103.0"] ;
720 -> 721 ;
722 [label="x[1] <= 7.0\nsquared_error = 12.25\nsamples = 2\nvalue = 113.5"] ;
721 -> 722 ;
723 [label="squared_error = 0.0\nsamples = 1\nvalue = 117.0"] ;
722 -> 723 ;
724 [label="squared_error = 0.0\nsamples = 1\nvalue = 110.0"] ;
722 -> 724 ;
725 [label="x[2] <= 49.5\nsquared_error = 99.188\nsamples = 4\nvalue = 97.75"] ;
721 -> 725 ;
726 [label="x[4] <= 1729.0\nsquared_error = 25.0\nsamples = 2\nvalue = 107.0"] ;
725 -> 726 ;
727 [label="squared_error = 0.0\nsamples = 1\nvalue = 102.0"] ;
726 -> 727 ;
728 [label="squared_error = 0.0\nsamples = 1\nvalue = 112.0"] ;
726 -> 728 ;
729 [label="x[5] <= -2.4\nsquared_error = 2.25\nsamples = 2\nvalue = 88.5"] ;
725 -> 729 ;
730 [label="squared_error = 0.0\nsamples = 1\nvalue = 90.0"] ;
729 -> 730 ;
731 [label="squared_error = 0.0\nsamples = 1\nvalue = 87.0"] ;
729 -> 731 ;
732 [label="x[3] <= 0.85\nsquared_error = 26.188\nsamples = 4\nvalue = 147.75"] ;
720 -> 732 ;
733 [label="x[5] <= -0.65\nsquared_error = 4.667\nsamples = 3\nvalue = 145.0"] ;
732 -> 733 ;
734 [label="x[1] <= 7.25\nsquared_error = 0.25\nsamples = 2\nvalue = 143.5"] ;
733 -> 734 ;
735 [label="squared_error = 0.0\nsamples = 1\nvalue = 144.0"] ;
734 -> 735 ;
736 [label="squared_error = 0.0\nsamples = 1\nvalue = 143.0"] ;
734 -> 736 ;
737 [label="squared_error = 0.0\nsamples = 1\nvalue = 148.0"] ;
733 -> 737 ;
738 [label="squared_error = 0.0\nsamples = 1\nvalue = 156.0"] ;
732 -> 738 ;
739 [label="x[3] <= 0.75\nsquared_error = 756.25\nsamples = 2\nvalue = 47.5"] ;
719 -> 739 ;
740 [label="squared_error = 0.0\nsamples = 1\nvalue = 75.0"] ;
739 -> 740 ;
741 [label="squared_error = 0.0\nsamples = 1\nvalue = 20.0"] ;
739 -> 741 ;
742 [label="x[1] <= 8.65\nsquared_error = 1476.186\nsamples = 82\nvalue = 162.622"] ;
698 -> 742 ;
743 [label="x[3] <= 0.95\nsquared_error = 763.422\nsamples = 52\nvalue = 149.962"] ;
742 -> 743 ;
744 [label="x[1] <= 2.4\nsquared_error = 585.125\nsamples = 34\nvalue = 141.147"] ;
743 -> 744 ;
745 [label="x[1] <= 1.95\nsquared_error = 305.36\nsamples = 10\nvalue = 126.2"] ;
744 -> 745 ;
746 [label="x[10] <= 10.5\nsquared_error = 144.859\nsamples = 8\nvalue = 132.875"] ;
745 -> 746 ;
747 [label="squared_error = 0.0\nsamples = 1\nvalue = 150.0"] ;
746 -> 747 ;
748 [label="x[0] <= 4.5\nsquared_error = 117.673\nsamples = 7\nvalue = 130.429"] ;
746 -> 748 ;
749 [label="x[4] <= 1672.5\nsquared_error = 2.25\nsamples = 2\nvalue = 117.5"] ;
748 -> 749 ;
750 [label="squared_error = 0.0\nsamples = 1\nvalue = 116.0"] ;
749 -> 750 ;
751 [label="squared_error = 0.0\nsamples = 1\nvalue = 119.0"] ;
749 -> 751 ;
752 [label="x[3] <= 0.55\nsquared_error = 70.24\nsamples = 5\nvalue = 135.6"] ;
748 -> 752 ;
753 [label="x[1] <= 0.0\nsquared_error = 16.0\nsamples = 2\nvalue = 145.0"] ;
752 -> 753 ;
754 [label="squared_error = 0.0\nsamples = 1\nvalue = 149.0"] ;
753 -> 754 ;
755 [label="squared_error = 0.0\nsamples = 1\nvalue = 141.0"] ;
753 -> 755 ;
756 [label="x[5] <= -12.5\nsquared_error = 8.222\nsamples = 3\nvalue = 129.333"] ;
752 -> 756 ;
757 [label="squared_error = 0.0\nsamples = 1\nvalue = 133.0"] ;
756 -> 757 ;
758 [label="squared_error = 2.25\nsamples = 2\nvalue = 127.5"] ;
756 -> 758 ;
759 [label="x[1] <= 2.2\nsquared_error = 56.25\nsamples = 2\nvalue = 99.5"] ;
745 -> 759 ;
760 [label="squared_error = 0.0\nsamples = 1\nvalue = 107.0"] ;
759 -> 760 ;
761 [label="squared_error = 0.0\nsamples = 1\nvalue = 92.0"] ;
759 -> 761 ;
762 [label="x[4] <= 1264.0\nsquared_error = 569.818\nsamples = 24\nvalue = 147.375"] ;
744 -> 762 ;
763 [label="x[5] <= 4.05\nsquared_error = 847.21\nsamples = 9\nvalue = 135.889"] ;
762 -> 763 ;
764 [label="x[3] <= 0.4\nsquared_error = 655.44\nsamples = 5\nvalue = 155.4"] ;
763 -> 764 ;
765 [label="squared_error = 0.0\nsamples = 1\nvalue = 112.0"] ;
764 -> 765 ;
766 [label="x[4] <= 680.5\nsquared_error = 230.688\nsamples = 4\nvalue = 166.25"] ;
764 -> 766 ;
767 [label="x[9] <= 5.0\nsquared_error = 81.0\nsamples = 2\nvalue = 180.0"] ;
766 -> 767 ;
768 [label="squared_error = 0.0\nsamples = 1\nvalue = 171.0"] ;
767 -> 768 ;
769 [label="squared_error = 0.0\nsamples = 1\nvalue = 189.0"] ;
767 -> 769 ;
770 [label="x[9] <= 3.5\nsquared_error = 2.25\nsamples = 2\nvalue = 152.5"] ;
766 -> 770 ;
771 [label="squared_error = 0.0\nsamples = 1\nvalue = 154.0"] ;
770 -> 771 ;
772 [label="squared_error = 0.0\nsamples = 1\nvalue = 151.0"] ;
770 -> 772 ;
773 [label="x[2] <= 84.5\nsquared_error = 16.25\nsamples = 4\nvalue = 111.5"] ;
763 -> 773 ;
774 [label="x[1] <= 7.8\nsquared_error = 2.889\nsamples = 3\nvalue = 109.333"] ;
773 -> 774 ;
775 [label="x[4] <= 553.0\nsquared_error = 0.25\nsamples = 2\nvalue = 110.5"] ;
774 -> 775 ;
776 [label="squared_error = 0.0\nsamples = 1\nvalue = 111.0"] ;
775 -> 776 ;
777 [label="squared_error = 0.0\nsamples = 1\nvalue = 110.0"] ;
775 -> 777 ;
778 [label="squared_error = 0.0\nsamples = 1\nvalue = 107.0"] ;
774 -> 778 ;
779 [label="squared_error = 0.0\nsamples = 1\nvalue = 118.0"] ;
773 -> 779 ;
780 [label="x[5] <= -0.05\nsquared_error = 276.729\nsamples = 15\nvalue = 154.267"] ;
762 -> 780 ;
781 [label="x[1] <= 3.8\nsquared_error = 300.122\nsamples = 7\nvalue = 143.857"] ;
780 -> 781 ;
782 [label="x[4] <= 1967.0\nsquared_error = 54.889\nsamples = 3\nvalue = 155.333"] ;
781 -> 782 ;
783 [label="x[3] <= 0.4\nsquared_error = 12.25\nsamples = 2\nvalue = 150.5"] ;
782 -> 783 ;
784 [label="squared_error = 0.0\nsamples = 1\nvalue = 154.0"] ;
783 -> 784 ;
785 [label="squared_error = 0.0\nsamples = 1\nvalue = 147.0"] ;
783 -> 785 ;
786 [label="squared_error = 0.0\nsamples = 1\nvalue = 165.0"] ;
782 -> 786 ;
787 [label="x[0] <= 4.5\nsquared_error = 311.188\nsamples = 4\nvalue = 135.25"] ;
781 -> 787 ;
788 [label="x[9] <= 0.5\nsquared_error = 144.0\nsamples = 2\nvalue = 121.0"] ;
787 -> 788 ;
789 [label="squared_error = 0.0\nsamples = 1\nvalue = 109.0"] ;
788 -> 789 ;
790 [label="squared_error = 0.0\nsamples = 1\nvalue = 133.0"] ;
788 -> 790 ;
791 [label="x[2] <= 72.5\nsquared_error = 72.25\nsamples = 2\nvalue = 149.5"] ;
787 -> 791 ;
792 [label="squared_error = 0.0\nsamples = 1\nvalue = 158.0"] ;
791 -> 792 ;
793 [label="squared_error = 0.0\nsamples = 1\nvalue = 141.0"] ;
791 -> 793 ;
794 [label="x[0] <= 4.5\nsquared_error = 78.484\nsamples = 8\nvalue = 163.375"] ;
780 -> 794 ;
795 [label="x[3] <= 0.45\nsquared_error = 84.667\nsamples = 3\nvalue = 171.0"] ;
794 -> 795 ;
796 [label="squared_error = 0.0\nsamples = 1\nvalue = 184.0"] ;
795 -> 796 ;
797 [label="x[2] <= 74.0\nsquared_error = 0.25\nsamples = 2\nvalue = 164.5"] ;
795 -> 797 ;
798 [label="squared_error = 0.0\nsamples = 1\nvalue = 164.0"] ;
797 -> 798 ;
799 [label="squared_error = 0.0\nsamples = 1\nvalue = 165.0"] ;
797 -> 799 ;
800 [label="x[4] <= 1735.5\nsquared_error = 18.96\nsamples = 5\nvalue = 158.8"] ;
794 -> 800 ;
801 [label="x[2] <= 73.5\nsquared_error = 16.222\nsamples = 3\nvalue = 156.333"] ;
800 -> 801 ;
802 [label="squared_error = 0.0\nsamples = 1\nvalue = 162.0"] ;
801 -> 802 ;
803 [label="squared_error = 0.25\nsamples = 2\nvalue = 153.5"] ;
801 -> 803 ;
804 [label="x[3] <= 0.4\nsquared_error = 0.25\nsamples = 2\nvalue = 162.5"] ;
800 -> 804 ;
805 [label="squared_error = 0.0\nsamples = 1\nvalue = 162.0"] ;
804 -> 805 ;
806 [label="squared_error = 0.0\nsamples = 1\nvalue = 163.0"] ;
804 -> 806 ;
807 [label="x[10] <= 7.5\nsquared_error = 676.238\nsamples = 18\nvalue = 166.611"] ;
743 -> 807 ;
808 [label="squared_error = 0.0\nsamples = 1\nvalue = 109.0"] ;
807 -> 808 ;
809 [label="x[2] <= 67.5\nsquared_error = 509.294\nsamples = 17\nvalue = 170.0"] ;
807 -> 809 ;
810 [label="x[0] <= 4.5\nsquared_error = 21.556\nsamples = 3\nvalue = 146.333"] ;
809 -> 810 ;
811 [label="x[3] <= 1.35\nsquared_error = 2.25\nsamples = 2\nvalue = 149.5"] ;
810 -> 811 ;
812 [label="squared_error = 0.0\nsamples = 1\nvalue = 148.0"] ;
811 -> 812 ;
813 [label="squared_error = 0.0\nsamples = 1\nvalue = 151.0"] ;
811 -> 813 ;
814 [label="squared_error = 0.0\nsamples = 1\nvalue = 140.0"] ;
810 -> 814 ;
815 [label="x[9] <= 2.5\nsquared_error = 468.066\nsamples = 14\nvalue = 175.071"] ;
809 -> 815 ;
816 [label="x[0] <= 4.5\nsquared_error = 86.0\nsamples = 3\nvalue = 159.0"] ;
815 -> 816 ;
817 [label="squared_error = 0.0\nsamples = 1\nvalue = 146.0"] ;
816 -> 817 ;
818 [label="x[4] <= 1073.0\nsquared_error = 2.25\nsamples = 2\nvalue = 165.5"] ;
816 -> 818 ;
819 [label="squared_error = 0.0\nsamples = 1\nvalue = 164.0"] ;
818 -> 819 ;
820 [label="squared_error = 0.0\nsamples = 1\nvalue = 167.0"] ;
818 -> 820 ;
821 [label="x[4] <= 1517.0\nsquared_error = 482.612\nsamples = 11\nvalue = 179.455"] ;
815 -> 821 ;
822 [label="x[3] <= 1.35\nsquared_error = 337.472\nsamples = 6\nvalue = 169.167"] ;
821 -> 822 ;
823 [label="x[9] <= 4.5\nsquared_error = 80.889\nsamples = 3\nvalue = 153.333"] ;
822 -> 823 ;
824 [label="squared_error = 0.0\nsamples = 1\nvalue = 166.0"] ;
823 -> 824 ;
825 [label="squared_error = 1.0\nsamples = 2\nvalue = 147.0"] ;
823 -> 825 ;
826 [label="x[4] <= 1089.0\nsquared_error = 92.667\nsamples = 3\nvalue = 185.0"] ;
822 -> 826 ;
827 [label="squared_error = 0.0\nsamples = 1\nvalue = 172.0"] ;
826 -> 827 ;
828 [label="squared_error = 12.25\nsamples = 2\nvalue = 191.5"] ;
826 -> 828 ;
829 [label="x[4] <= 1783.5\nsquared_error = 377.36\nsamples = 5\nvalue = 191.8"] ;
821 -> 829 ;
830 [label="squared_error = 0.0\nsamples = 1\nvalue = 226.0"] ;
829 -> 830 ;
831 [label="x[0] <= 4.5\nsquared_error = 106.188\nsamples = 4\nvalue = 183.25"] ;
829 -> 831 ;
832 [label="squared_error = 0.0\nsamples = 1\nvalue = 168.0"] ;
831 -> 832 ;
833 [label="squared_error = 38.222\nsamples = 3\nvalue = 188.333"] ;
831 -> 833 ;
834 [label="x[9] <= 4.5\nsquared_error = 1952.246\nsamples = 30\nvalue = 184.567"] ;
742 -> 834 ;
835 [label="x[5] <= 7.2\nsquared_error = 1986.245\nsamples = 21\nvalue = 172.571"] ;
834 -> 835 ;
836 [label="x[0] <= 4.5\nsquared_error = 1440.715\nsamples = 16\nvalue = 161.312"] ;
835 -> 836 ;
837 [label="x[5] <= 4.35\nsquared_error = 516.859\nsamples = 8\nvalue = 135.875"] ;
836 -> 837 ;
838 [label="x[2] <= 65.0\nsquared_error = 103.44\nsamples = 5\nvalue = 119.6"] ;
837 -> 838 ;
839 [label="x[5] <= 3.05\nsquared_error = 23.5\nsamples = 4\nvalue = 115.0"] ;
838 -> 839 ;
840 [label="x[12] <= 0.5\nsquared_error = 2.25\nsamples = 2\nvalue = 111.5"] ;
839 -> 840 ;
841 [label="squared_error = 0.0\nsamples = 1\nvalue = 110.0"] ;
840 -> 841 ;
842 [label="squared_error = 0.0\nsamples = 1\nvalue = 113.0"] ;
840 -> 842 ;
843 [label="x[11] <= 0.5\nsquared_error = 20.25\nsamples = 2\nvalue = 118.5"] ;
839 -> 843 ;
844 [label="squared_error = 0.0\nsamples = 1\nvalue = 114.0"] ;
843 -> 844 ;
845 [label="squared_error = 0.0\nsamples = 1\nvalue = 123.0"] ;
843 -> 845 ;
846 [label="squared_error = 0.0\nsamples = 1\nvalue = 138.0"] ;
838 -> 846 ;
847 [label="x[3] <= 0.75\nsquared_error = 28.667\nsamples = 3\nvalue = 163.0"] ;
837 -> 847 ;
848 [label="x[4] <= 1486.0\nsquared_error = 6.25\nsamples = 2\nvalue = 159.5"] ;
847 -> 848 ;
849 [label="squared_error = 0.0\nsamples = 1\nvalue = 162.0"] ;
848 -> 849 ;
850 [label="squared_error = 0.0\nsamples = 1\nvalue = 157.0"] ;
848 -> 850 ;
851 [label="squared_error = 0.0\nsamples = 1\nvalue = 170.0"] ;
847 -> 851 ;
852 [label="x[15] <= 0.5\nsquared_error = 1070.438\nsamples = 8\nvalue = 186.75"] ;
836 -> 852 ;
853 [label="x[9] <= 3.5\nsquared_error = 132.245\nsamples = 7\nvalue = 198.429"] ;
852 -> 853 ;
854 [label="x[3] <= 0.65\nsquared_error = 27.6\nsamples = 5\nvalue = 205.0"] ;
853 -> 854 ;
855 [label="squared_error = 0.0\nsamples = 1\nvalue = 215.0"] ;
854 -> 855 ;
856 [label="x[5] <= 3.15\nsquared_error = 3.25\nsamples = 4\nvalue = 202.5"] ;
854 -> 856 ;
857 [label="squared_error = 1.0\nsamples = 2\nvalue = 201.0"] ;
856 -> 857 ;
858 [label="squared_error = 1.0\nsamples = 2\nvalue = 204.0"] ;
856 -> 858 ;
859 [label="x[11] <= 0.5\nsquared_error = 16.0\nsamples = 2\nvalue = 182.0"] ;
853 -> 859 ;
860 [label="squared_error = 0.0\nsamples = 1\nvalue = 186.0"] ;
859 -> 860 ;
861 [label="squared_error = 0.0\nsamples = 1\nvalue = 178.0"] ;
859 -> 861 ;
862 [label="squared_error = 0.0\nsamples = 1\nvalue = 105.0"] ;
852 -> 862 ;
863 [label="x[1] <= 12.0\nsquared_error = 2028.24\nsamples = 5\nvalue = 208.6"] ;
835 -> 863 ;
864 [label="x[0] <= 4.5\nsquared_error = 758.688\nsamples = 4\nvalue = 189.75"] ;
863 -> 864 ;
865 [label="squared_error = 0.0\nsamples = 1\nvalue = 154.0"] ;
864 -> 865 ;
866 [label="x[4] <= 1509.0\nsquared_error = 443.556\nsamples = 3\nvalue = 201.667"] ;
864 -> 866 ;
867 [label="x[4] <= 749.0\nsquared_error = 49.0\nsamples = 2\nvalue = 216.0"] ;
866 -> 867 ;
868 [label="squared_error = 0.0\nsamples = 1\nvalue = 223.0"] ;
867 -> 868 ;
869 [label="squared_error = 0.0\nsamples = 1\nvalue = 209.0"] ;
867 -> 869 ;
870 [label="squared_error = 0.0\nsamples = 1\nvalue = 173.0"] ;
866 -> 870 ;
871 [label="squared_error = 0.0\nsamples = 1\nvalue = 284.0"] ;
863 -> 871 ;
872 [label="x[0] <= 4.5\nsquared_error = 753.802\nsamples = 9\nvalue = 212.556"] ;
834 -> 872 ;
873 [label="x[9] <= 5.5\nsquared_error = 326.917\nsamples = 6\nvalue = 227.5"] ;
872 -> 873 ;
874 [label="x[2] <= 81.0\nsquared_error = 127.25\nsamples = 4\nvalue = 238.5"] ;
873 -> 874 ;
875 [label="x[5] <= 1.9\nsquared_error = 62.889\nsamples = 3\nvalue = 243.667"] ;
874 -> 875 ;
876 [label="squared_error = 0.0\nsamples = 1\nvalue = 233.0"] ;
875 -> 876 ;
877 [label="x[2] <= 63.0\nsquared_error = 9.0\nsamples = 2\nvalue = 249.0"] ;
875 -> 877 ;
878 [label="squared_error = 0.0\nsamples = 1\nvalue = 252.0"] ;
877 -> 878 ;
879 [label="squared_error = 0.0\nsamples = 1\nvalue = 246.0"] ;
877 -> 879 ;
880 [label="squared_error = 0.0\nsamples = 1\nvalue = 223.0"] ;
874 -> 880 ;
881 [label="x[12] <= 0.5\nsquared_error = 0.25\nsamples = 2\nvalue = 205.5"] ;
873 -> 881 ;
882 [label="squared_error = 0.0\nsamples = 1\nvalue = 206.0"] ;
881 -> 882 ;
883 [label="squared_error = 0.0\nsamples = 1\nvalue = 205.0"] ;
881 -> 883 ;
884 [label="x[9] <= 5.5\nsquared_error = 267.556\nsamples = 3\nvalue = 182.667"] ;
872 -> 884 ;
885 [label="x[1] <= 11.3\nsquared_error = 16.0\nsamples = 2\nvalue = 194.0"] ;
884 -> 885 ;
886 [label="squared_error = 0.0\nsamples = 1\nvalue = 198.0"] ;
885 -> 886 ;
887 [label="squared_error = 0.0\nsamples = 1\nvalue = 190.0"] ;
885 -> 887 ;
888 [label="squared_error = 0.0\nsamples = 1\nvalue = 160.0"] ;
884 -> 888 ;
889 [label="x[9] <= 4.5\nsquared_error = 819.802\nsamples = 9\nvalue = 87.556"] ;
697 -> 889 ;
890 [label="x[9] <= 1.5\nsquared_error = 564.438\nsamples = 8\nvalue = 81.25"] ;
889 -> 890 ;
891 [label="x[1] <= 10.65\nsquared_error = 203.84\nsamples = 5\nvalue = 96.6"] ;
890 -> 891 ;
892 [label="x[4] <= 1135.0\nsquared_error = 68.75\nsamples = 4\nvalue = 90.5"] ;
891 -> 892 ;
893 [label="x[8] <= 0.15\nsquared_error = 10.667\nsamples = 3\nvalue = 95.0"] ;
892 -> 893 ;
894 [label="x[9] <= 0.5\nsquared_error = 4.0\nsamples = 2\nvalue = 93.0"] ;
893 -> 894 ;
895 [label="squared_error = 0.0\nsamples = 1\nvalue = 91.0"] ;
894 -> 895 ;
896 [label="squared_error = 0.0\nsamples = 1\nvalue = 95.0"] ;
894 -> 896 ;
897 [label="squared_error = 0.0\nsamples = 1\nvalue = 99.0"] ;
893 -> 897 ;
898 [label="squared_error = 0.0\nsamples = 1\nvalue = 77.0"] ;
892 -> 898 ;
899 [label="squared_error = 0.0\nsamples = 1\nvalue = 121.0"] ;
891 -> 899 ;
900 [label="x[3] <= 0.45\nsquared_error = 118.222\nsamples = 3\nvalue = 55.667"] ;
890 -> 900 ;
901 [label="squared_error = 0.0\nsamples = 1\nvalue = 71.0"] ;
900 -> 901 ;
902 [label="x[0] <= 4.5\nsquared_error = 1.0\nsamples = 2\nvalue = 48.0"] ;
900 -> 902 ;
903 [label="squared_error = 0.0\nsamples = 1\nvalue = 47.0"] ;
902 -> 903 ;
904 [label="squared_error = 0.0\nsamples = 1\nvalue = 49.0"] ;
902 -> 904 ;
905 [label="squared_error = 0.0\nsamples = 1\nvalue = 138.0"] ;
889 -> 905 ;
906 [label="x[5] <= 4.8\nsquared_error = 1521.883\nsamples = 14\nvalue = 44.786"] ;
604 -> 906 ;
907 [label="x[4] <= 1051.0\nsquared_error = 582.0\nsamples = 4\nvalue = 94.0"] ;
906 -> 907 ;
908 [label="x[7] <= 0.55\nsquared_error = 25.0\nsamples = 2\nvalue = 117.0"] ;
907 -> 908 ;
909 [label="squared_error = 0.0\nsamples = 1\nvalue = 122.0"] ;
908 -> 909 ;
910 [label="squared_error = 0.0\nsamples = 1\nvalue = 112.0"] ;
908 -> 910 ;
911 [label="x[7] <= 0.15\nsquared_error = 81.0\nsamples = 2\nvalue = 71.0"] ;
907 -> 911 ;
912 [label="squared_error = 0.0\nsamples = 1\nvalue = 80.0"] ;
911 -> 912 ;
913 [label="squared_error = 0.0\nsamples = 1\nvalue = 62.0"] ;
911 -> 913 ;
914 [label="x[3] <= 1.85\nsquared_error = 541.49\nsamples = 10\nvalue = 25.1"] ;
906 -> 914 ;
915 [label="x[7] <= 0.65\nsquared_error = 478.688\nsamples = 4\nvalue = 47.25"] ;
914 -> 915 ;
916 [label="x[12] <= 0.5\nsquared_error = 144.0\nsamples = 2\nvalue = 66.0"] ;
915 -> 916 ;
917 [label="squared_error = 0.0\nsamples = 1\nvalue = 78.0"] ;
916 -> 917 ;
918 [label="squared_error = 0.0\nsamples = 1\nvalue = 54.0"] ;
916 -> 918 ;
919 [label="x[2] <= 84.0\nsquared_error = 110.25\nsamples = 2\nvalue = 28.5"] ;
915 -> 919 ;
920 [label="squared_error = 0.0\nsamples = 1\nvalue = 39.0"] ;
919 -> 920 ;
921 [label="squared_error = 0.0\nsamples = 1\nvalue = 18.0"] ;
919 -> 921 ;
922 [label="x[9] <= 1.0\nsquared_error = 38.222\nsamples = 6\nvalue = 10.333"] ;
914 -> 922 ;
923 [label="x[7] <= 3.0\nsquared_error = 6.222\nsamples = 3\nvalue = 5.333"] ;
922 -> 923 ;
924 [label="x[0] <= 4.0\nsquared_error = 1.0\nsamples = 2\nvalue = 7.0"] ;
923 -> 924 ;
925 [label="squared_error = 0.0\nsamples = 1\nvalue = 8.0"] ;
924 -> 925 ;
926 [label="squared_error = 0.0\nsamples = 1\nvalue = 6.0"] ;
924 -> 926 ;
927 [label="squared_error = 0.0\nsamples = 1\nvalue = 2.0"] ;
923 -> 927 ;
928 [label="x[0] <= 4.5\nsquared_error = 20.222\nsamples = 3\nvalue = 15.333"] ;
922 -> 928 ;
929 [label="squared_error = 0.0\nsamples = 1\nvalue = 9.0"] ;
928 -> 929 ;
930 [label="x[5] <= 8.3\nsquared_error = 0.25\nsamples = 2\nvalue = 18.5"] ;
928 -> 930 ;
931 [label="squared_error = 0.0\nsamples = 1\nvalue = 18.0"] ;
930 -> 931 ;
932 [label="squared_error = 0.0\nsamples = 1\nvalue = 19.0"] ;
930 -> 932 ;
933 [label="x[9] <= 4.5\nsquared_error = 22912.946\nsamples = 60\nvalue = 311.433"] ;
603 -> 933 ;
934 [label="x[2] <= 89.5\nsquared_error = 11945.987\nsamples = 40\nvalue = 394.25"] ;
933 -> 934 ;
935 [label="x[15] <= 0.5\nsquared_error = 8431.817\nsamples = 37\nvalue = 412.486"] ;
934 -> 935 ;
936 [label="x[10] <= 10.5\nsquared_error = 6008.511\nsamples = 35\nvalue = 424.343"] ;
935 -> 936 ;
937 [label="x[10] <= 4.5\nsquared_error = 4605.852\nsamples = 26\nvalue = 450.385"] ;
936 -> 937 ;
938 [label="x[2] <= 79.5\nsquared_error = 2602.41\nsamples = 10\nvalue = 389.3"] ;
937 -> 938 ;
939 [label="x[3] <= 1.0\nsquared_error = 890.914\nsamples = 9\nvalue = 403.444"] ;
938 -> 939 ;
940 [label="x[2] <= 53.5\nsquared_error = 754.204\nsamples = 7\nvalue = 412.714"] ;
939 -> 940 ;
941 [label="x[9] <= 3.0\nsquared_error = 182.25\nsamples = 2\nvalue = 381.5"] ;
940 -> 941 ;
942 [label="squared_error = 0.0\nsamples = 1\nvalue = 395.0"] ;
941 -> 942 ;
943 [label="squared_error = 0.0\nsamples = 1\nvalue = 368.0"] ;
941 -> 943 ;
944 [label="x[9] <= 1.5\nsquared_error = 437.36\nsamples = 5\nvalue = 425.2"] ;
940 -> 944 ;
945 [label="x[3] <= 0.6\nsquared_error = 0.25\nsamples = 2\nvalue = 405.5"] ;
944 -> 945 ;
946 [label="squared_error = 0.0\nsamples = 1\nvalue = 406.0"] ;
945 -> 946 ;
947 [label="squared_error = 0.0\nsamples = 1\nvalue = 405.0"] ;
945 -> 947 ;
948 [label="x[4] <= 1019.0\nsquared_error = 297.556\nsamples = 3\nvalue = 438.333"] ;
944 -> 948 ;
949 [label="squared_error = 0.0\nsamples = 1\nvalue = 414.0"] ;
948 -> 949 ;
950 [label="x[2] <= 63.5\nsquared_error = 2.25\nsamples = 2\nvalue = 450.5"] ;
948 -> 950 ;
951 [label="squared_error = 0.0\nsamples = 1\nvalue = 449.0"] ;
950 -> 951 ;
952 [label="squared_error = 0.0\nsamples = 1\nvalue = 452.0"] ;
950 -> 952 ;
953 [label="x[4] <= 1400.5\nsquared_error = 16.0\nsamples = 2\nvalue = 371.0"] ;
939 -> 953 ;
954 [label="squared_error = 0.0\nsamples = 1\nvalue = 367.0"] ;
953 -> 954 ;
955 [label="squared_error = 0.0\nsamples = 1\nvalue = 375.0"] ;
953 -> 955 ;
956 [label="squared_error = 0.0\nsamples = 1\nvalue = 262.0"] ;
938 -> 956 ;
957 [label="x[1] <= 5.1\nsquared_error = 2068.371\nsamples = 16\nvalue = 488.562"] ;
937 -> 957 ;
958 [label="x[1] <= 2.2\nsquared_error = 16.0\nsamples = 2\nvalue = 398.0"] ;
957 -> 958 ;
959 [label="squared_error = 0.0\nsamples = 1\nvalue = 394.0"] ;
958 -> 959 ;
960 [label="squared_error = 0.0\nsamples = 1\nvalue = 402.0"] ;
958 -> 960 ;
961 [label="x[6] <= 0.015\nsquared_error = 1022.536\nsamples = 14\nvalue = 501.5"] ;
957 -> 961 ;
962 [label="x[2] <= 69.5\nsquared_error = 581.24\nsamples = 10\nvalue = 491.6"] ;
961 -> 962 ;
963 [label="x[1] <= 9.35\nsquared_error = 46.688\nsamples = 4\nvalue = 513.75"] ;
962 -> 963 ;
964 [label="x[3] <= 1.2\nsquared_error = 10.889\nsamples = 3\nvalue = 517.333"] ;
963 -> 964 ;
965 [label="squared_error = 0.0\nsamples = 1\nvalue = 513.0"] ;
964 -> 965 ;
966 [label="x[3] <= 1.65\nsquared_error = 2.25\nsamples = 2\nvalue = 519.5"] ;
964 -> 966 ;
967 [label="squared_error = 0.0\nsamples = 1\nvalue = 518.0"] ;
966 -> 967 ;
968 [label="squared_error = 0.0\nsamples = 1\nvalue = 521.0"] ;
966 -> 968 ;
969 [label="squared_error = 0.0\nsamples = 1\nvalue = 503.0"] ;
963 -> 969 ;
970 [label="x[3] <= 0.75\nsquared_error = 392.472\nsamples = 6\nvalue = 476.833"] ;
962 -> 970 ;
971 [label="x[1] <= 10.65\nsquared_error = 37.556\nsamples = 3\nvalue = 495.333"] ;
970 -> 971 ;
972 [label="squared_error = 0.0\nsamples = 2\nvalue = 491.0"] ;
971 -> 972 ;
973 [label="squared_error = 0.0\nsamples = 1\nvalue = 504.0"] ;
971 -> 973 ;
974 [label="x[10] <= 7.5\nsquared_error = 62.889\nsamples = 3\nvalue = 458.333"] ;
970 -> 974 ;
975 [label="squared_error = 0.0\nsamples = 1\nvalue = 469.0"] ;
974 -> 975 ;
976 [label="x[2] <= 80.5\nsquared_error = 9.0\nsamples = 2\nvalue = 453.0"] ;
974 -> 976 ;
977 [label="squared_error = 0.0\nsamples = 1\nvalue = 456.0"] ;
976 -> 977 ;
978 [label="squared_error = 0.0\nsamples = 1\nvalue = 450.0"] ;
976 -> 978 ;
979 [label="x[2] <= 32.0\nsquared_error = 1268.188\nsamples = 4\nvalue = 526.25"] ;
961 -> 979 ;
980 [label="squared_error = 0.0\nsamples = 1\nvalue = 467.0"] ;
979 -> 980 ;
981 [label="x[6] <= 0.03\nsquared_error = 130.667\nsamples = 3\nvalue = 546.0"] ;
979 -> 981 ;
982 [label="x[4] <= 1126.0\nsquared_error = 4.0\nsamples = 2\nvalue = 554.0"] ;
981 -> 982 ;
983 [label="squared_error = 0.0\nsamples = 1\nvalue = 552.0"] ;
982 -> 983 ;
984 [label="squared_error = 0.0\nsamples = 1\nvalue = 556.0"] ;
982 -> 984 ;
985 [label="squared_error = 0.0\nsamples = 1\nvalue = 530.0"] ;
981 -> 985 ;
986 [label="x[1] <= 3.2\nsquared_error = 2441.654\nsamples = 9\nvalue = 349.111"] ;
936 -> 986 ;
987 [label="x[4] <= 1589.5\nsquared_error = 492.688\nsamples = 4\nvalue = 311.75"] ;
986 -> 987 ;
988 [label="x[1] <= 0.9\nsquared_error = 9.0\nsamples = 2\nvalue = 290.0"] ;
987 -> 988 ;
989 [label="squared_error = 0.0\nsamples = 1\nvalue = 293.0"] ;
988 -> 989 ;
990 [label="squared_error = 0.0\nsamples = 1\nvalue = 287.0"] ;
988 -> 990 ;
991 [label="x[9] <= 3.5\nsquared_error = 30.25\nsamples = 2\nvalue = 333.5"] ;
987 -> 991 ;
992 [label="squared_error = 0.0\nsamples = 1\nvalue = 328.0"] ;
991 -> 992 ;
993 [label="squared_error = 0.0\nsamples = 1\nvalue = 339.0"] ;
991 -> 993 ;
994 [label="x[5] <= 2.85\nsquared_error = 1990.8\nsamples = 5\nvalue = 379.0"] ;
986 -> 994 ;
995 [label="x[5] <= 1.05\nsquared_error = 488.5\nsamples = 4\nvalue = 399.0"] ;
994 -> 995 ;
996 [label="x[2] <= 73.0\nsquared_error = 42.889\nsamples = 3\nvalue = 411.333"] ;
995 -> 996 ;
997 [label="x[5] <= -0.2\nsquared_error = 12.25\nsamples = 2\nvalue = 415.5"] ;
996 -> 997 ;
998 [label="squared_error = 0.0\nsamples = 1\nvalue = 419.0"] ;
997 -> 998 ;
999 [label="squared_error = 0.0\nsamples = 1\nvalue = 412.0"] ;
997 -> 999 ;
1000 [label="squared_error = 0.0\nsamples = 1\nvalue = 403.0"] ;
996 -> 1000 ;
1001 [label="squared_error = 0.0\nsamples = 1\nvalue = 362.0"] ;
995 -> 1001 ;
1002 [label="squared_error = 0.0\nsamples = 1\nvalue = 299.0"] ;
994 -> 1002 ;
1003 [label="x[1] <= 11.3\nsquared_error = 5329.0\nsamples = 2\nvalue = 205.0"] ;
935 -> 1003 ;
1004 [label="squared_error = 0.0\nsamples = 1\nvalue = 132.0"] ;
1003 -> 1004 ;
1005 [label="squared_error = 0.0\nsamples = 1\nvalue = 278.0"] ;
1003 -> 1005 ;
1006 [label="x[4] <= 931.5\nsquared_error = 598.222\nsamples = 3\nvalue = 169.333"] ;
934 -> 1006 ;
1007 [label="x[12] <= 0.5\nsquared_error = 64.0\nsamples = 2\nvalue = 186.0"] ;
1006 -> 1007 ;
1008 [label="squared_error = 0.0\nsamples = 1\nvalue = 194.0"] ;
1007 -> 1008 ;
1009 [label="squared_error = 0.0\nsamples = 1\nvalue = 178.0"] ;
1007 -> 1009 ;
1010 [label="squared_error = 0.0\nsamples = 1\nvalue = 136.0"] ;
1006 -> 1010 ;
1011 [label="x[1] <= 9.1\nsquared_error = 3695.26\nsamples = 20\nvalue = 145.8"] ;
933 -> 1011 ;
1012 [label="x[7] <= 0.5\nsquared_error = 2526.854\nsamples = 12\nvalue = 114.25"] ;
1011 -> 1012 ;
1013 [label="x[1] <= 6.9\nsquared_error = 1374.84\nsamples = 10\nvalue = 130.4"] ;
1012 -> 1013 ;
1014 [label="x[3] <= 0.65\nsquared_error = 694.98\nsamples = 7\nvalue = 112.143"] ;
1013 -> 1014 ;
1015 [label="x[5] <= -4.55\nsquared_error = 244.222\nsamples = 3\nvalue = 135.333"] ;
1014 -> 1015 ;
1016 [label="squared_error = 0.0\nsamples = 1\nvalue = 114.0"] ;
1015 -> 1016 ;
1017 [label="x[4] <= 1138.5\nsquared_error = 25.0\nsamples = 2\nvalue = 146.0"] ;
1015 -> 1017 ;
1018 [label="squared_error = 0.0\nsamples = 1\nvalue = 141.0"] ;
1017 -> 1018 ;
1019 [label="squared_error = 0.0\nsamples = 1\nvalue = 151.0"] ;
1017 -> 1019 ;
1020 [label="x[1] <= 5.15\nsquared_error = 327.188\nsamples = 4\nvalue = 94.75"] ;
1014 -> 1020 ;
1021 [label="x[10] <= 7.5\nsquared_error = 216.222\nsamples = 3\nvalue = 87.333"] ;
1020 -> 1021 ;
1022 [label="squared_error = 0.0\nsamples = 1\nvalue = 108.0"] ;
1021 -> 1022 ;
1023 [label="x[8] <= 1.25\nsquared_error = 4.0\nsamples = 2\nvalue = 77.0"] ;
1021 -> 1023 ;
1024 [label="squared_error = 0.0\nsamples = 1\nvalue = 79.0"] ;
1023 -> 1024 ;
1025 [label="squared_error = 0.0\nsamples = 1\nvalue = 75.0"] ;
1023 -> 1025 ;
1026 [label="squared_error = 0.0\nsamples = 1\nvalue = 117.0"] ;
1020 -> 1026 ;
1027 [label="x[3] <= 1.5\nsquared_error = 368.667\nsamples = 3\nvalue = 173.0"] ;
1013 -> 1027 ;
1028 [label="x[5] <= 3.65\nsquared_error = 121.0\nsamples = 2\nvalue = 161.0"] ;
1027 -> 1028 ;
1029 [label="squared_error = 0.0\nsamples = 1\nvalue = 172.0"] ;
1028 -> 1029 ;
1030 [label="squared_error = 0.0\nsamples = 1\nvalue = 150.0"] ;
1028 -> 1030 ;
1031 [label="squared_error = 0.0\nsamples = 1\nvalue = 197.0"] ;
1027 -> 1031 ;
1032 [label="x[1] <= 7.8\nsquared_error = 462.25\nsamples = 2\nvalue = 33.5"] ;
1012 -> 1032 ;
1033 [label="squared_error = 0.0\nsamples = 1\nvalue = 55.0"] ;
1032 -> 1033 ;
1034 [label="squared_error = 0.0\nsamples = 1\nvalue = 12.0"] ;
1032 -> 1034 ;
1035 [label="x[3] <= 0.45\nsquared_error = 1715.109\nsamples = 8\nvalue = 193.125"] ;
1011 -> 1035 ;
1036 [label="squared_error = 0.0\nsamples = 1\nvalue = 110.0"] ;
1035 -> 1036 ;
1037 [label="x[3] <= 0.9\nsquared_error = 832.0\nsamples = 7\nvalue = 205.0"] ;
1035 -> 1037 ;
1038 [label="x[11] <= 0.5\nsquared_error = 94.889\nsamples = 3\nvalue = 180.333"] ;
1037 -> 1038 ;
1039 [label="x[10] <= 4.5\nsquared_error = 9.0\nsamples = 2\nvalue = 187.0"] ;
1038 -> 1039 ;
1040 [label="squared_error = 0.0\nsamples = 1\nvalue = 184.0"] ;
1039 -> 1040 ;
1041 [label="squared_error = 0.0\nsamples = 1\nvalue = 190.0"] ;
1039 -> 1041 ;
1042 [label="squared_error = 0.0\nsamples = 1\nvalue = 167.0"] ;
1038 -> 1042 ;
1043 [label="x[5] <= 3.35\nsquared_error = 586.25\nsamples = 4\nvalue = 223.5"] ;
1037 -> 1043 ;
1044 [label="squared_error = 0.0\nsamples = 1\nvalue = 183.0"] ;
1043 -> 1044 ;
1045 [label="x[1] <= 11.45\nsquared_error = 52.667\nsamples = 3\nvalue = 237.0"] ;
1043 -> 1045 ;
1046 [label="x[6] <= 0.015\nsquared_error = 4.0\nsamples = 2\nvalue = 232.0"] ;
1045 -> 1046 ;
1047 [label="squared_error = 0.0\nsamples = 1\nvalue = 230.0"] ;
1046 -> 1047 ;
1048 [label="squared_error = 0.0\nsamples = 1\nvalue = 234.0"] ;
1046 -> 1048 ;
1049 [label="squared_error = 0.0\nsamples = 1\nvalue = 247.0"] ;
1045 -> 1049 ;
1050 [label="x[2] <= 79.5\nsquared_error = 212720.333\nsamples = 902\nvalue = 716.983"] ;
2 -> 1050 ;
1051 [label="x[17] <= 0.5\nsquared_error = 181340.019\nsamples = 725\nvalue = 816.541"] ;
1050 -> 1051 ;
1052 [label="x[10] <= 3.5\nsquared_error = 163939.996\nsamples = 701\nvalue = 844.496"] ;
1051 -> 1052 ;
1053 [label="x[1] <= 7.85\nsquared_error = 84383.32\nsamples = 239\nvalue = 621.598"] ;
1052 -> 1053 ;
1054 [label="x[1] <= 1.05\nsquared_error = 54815.016\nsamples = 134\nvalue = 509.082"] ;
1053 -> 1054 ;
1055 [label="x[1] <= -5.4\nsquared_error = 11220.111\nsamples = 17\nvalue = 298.353"] ;
1054 -> 1055 ;
1056 [label="squared_error = 0.0\nsamples = 1\nvalue = 617.0"] ;
1055 -> 1056 ;
1057 [label="x[2] <= 42.5\nsquared_error = 5178.746\nsamples = 16\nvalue = 278.438"] ;
1055 -> 1057 ;
1058 [label="x[1] <= 0.45\nsquared_error = 2196.984\nsamples = 8\nvalue = 334.625"] ;
1057 -> 1058 ;
1059 [label="x[5] <= -17.6\nsquared_error = 701.139\nsamples = 6\nvalue = 311.167"] ;
1058 -> 1059 ;
1060 [label="squared_error = 0.0\nsamples = 1\nvalue = 343.0"] ;
1059 -> 1060 ;
1061 [label="x[6] <= 1.89\nsquared_error = 598.16\nsamples = 5\nvalue = 304.8"] ;
1059 -> 1061 ;
1062 [label="x[4] <= 1586.0\nsquared_error = 291.688\nsamples = 4\nvalue = 295.25"] ;
1061 -> 1062 ;
1063 [label="x[3] <= 3.25\nsquared_error = 30.25\nsamples = 2\nvalue = 311.5"] ;
1062 -> 1063 ;
1064 [label="squared_error = 0.0\nsamples = 1\nvalue = 306.0"] ;
1063 -> 1064 ;
1065 [label="squared_error = 0.0\nsamples = 1\nvalue = 317.0"] ;
1063 -> 1065 ;
1066 [label="x[5] <= -14.7\nsquared_error = 25.0\nsamples = 2\nvalue = 279.0"] ;
1062 -> 1066 ;
1067 [label="squared_error = 0.0\nsamples = 1\nvalue = 274.0"] ;
1066 -> 1067 ;
1068 [label="squared_error = 0.0\nsamples = 1\nvalue = 284.0"] ;
1066 -> 1068 ;
1069 [label="squared_error = 0.0\nsamples = 1\nvalue = 343.0"] ;
1061 -> 1069 ;
1070 [label="x[1] <= 0.75\nsquared_error = 81.0\nsamples = 2\nvalue = 405.0"] ;
1058 -> 1070 ;
1071 [label="squared_error = 0.0\nsamples = 1\nvalue = 414.0"] ;
1070 -> 1071 ;
1072 [label="squared_error = 0.0\nsamples = 1\nvalue = 396.0"] ;
1070 -> 1072 ;
1073 [label="x[6] <= 2.345\nsquared_error = 1846.438\nsamples = 8\nvalue = 222.25"] ;
1057 -> 1073 ;
1074 [label="x[3] <= 4.75\nsquared_error = 824.245\nsamples = 7\nvalue = 209.571"] ;
1073 -> 1074 ;
1075 [label="x[2] <= 50.5\nsquared_error = 483.806\nsamples = 6\nvalue = 217.833"] ;
1074 -> 1075 ;
1076 [label="x[1] <= -1.95\nsquared_error = 56.25\nsamples = 2\nvalue = 238.5"] ;
1075 -> 1076 ;
1077 [label="squared_error = 0.0\nsamples = 1\nvalue = 246.0"] ;
1076 -> 1077 ;
1078 [label="squared_error = 0.0\nsamples = 1\nvalue = 231.0"] ;
1076 -> 1078 ;
1079 [label="x[3] <= 4.15\nsquared_error = 377.25\nsamples = 4\nvalue = 207.5"] ;
1075 -> 1079 ;
1080 [label="x[1] <= 0.7\nsquared_error = 62.0\nsamples = 3\nvalue = 197.0"] ;
1079 -> 1080 ;
1081 [label="x[3] <= 2.25\nsquared_error = 2.25\nsamples = 2\nvalue = 191.5"] ;
1080 -> 1081 ;
1082 [label="squared_error = 0.0\nsamples = 1\nvalue = 193.0"] ;
1081 -> 1082 ;
1083 [label="squared_error = 0.0\nsamples = 1\nvalue = 190.0"] ;
1081 -> 1083 ;
1084 [label="squared_error = 0.0\nsamples = 1\nvalue = 208.0"] ;
1080 -> 1084 ;
1085 [label="squared_error = 0.0\nsamples = 1\nvalue = 239.0"] ;
1079 -> 1085 ;
1086 [label="squared_error = 0.0\nsamples = 1\nvalue = 160.0"] ;
1074 -> 1086 ;
1087 [label="squared_error = 0.0\nsamples = 1\nvalue = 311.0"] ;
1073 -> 1087 ;
1088 [label="x[0] <= 22.5\nsquared_error = 53759.543\nsamples = 117\nvalue = 539.701"] ;
1054 -> 1088 ;
1089 [label="x[6] <= 0.44\nsquared_error = 53042.879\nsamples = 107\nvalue = 559.579"] ;
1088 -> 1089 ;
1090 [label="x[9] <= 4.5\nsquared_error = 69557.749\nsamples = 61\nvalue = 634.295"] ;
1089 -> 1090 ;
1091 [label="x[6] <= 0.185\nsquared_error = 67744.949\nsamples = 43\nvalue = 715.93"] ;
1090 -> 1091 ;
1092 [label="x[5] <= -0.05\nsquared_error = 22451.36\nsamples = 30\nvalue = 626.2"] ;
1091 -> 1092 ;
1093 [label="x[1] <= 3.15\nsquared_error = 15034.131\nsamples = 29\nvalue = 642.724"] ;
1092 -> 1093 ;
1094 [label="x[0] <= 19.5\nsquared_error = 4685.29\nsamples = 13\nvalue = 551.692"] ;
1093 -> 1094 ;
1095 [label="x[1] <= 2.35\nsquared_error = 1413.333\nsamples = 6\nvalue = 613.0"] ;
1094 -> 1095 ;
1096 [label="x[9] <= 3.0\nsquared_error = 355.688\nsamples = 4\nvalue = 588.75"] ;
1095 -> 1096 ;
1097 [label="x[3] <= 1.6\nsquared_error = 72.25\nsamples = 2\nvalue = 606.5"] ;
1096 -> 1097 ;
1098 [label="squared_error = 0.0\nsamples = 1\nvalue = 615.0"] ;
1097 -> 1098 ;
1099 [label="squared_error = 0.0\nsamples = 1\nvalue = 598.0"] ;
1097 -> 1099 ;
1100 [label="x[2] <= 51.0\nsquared_error = 9.0\nsamples = 2\nvalue = 571.0"] ;
1096 -> 1100 ;
1101 [label="squared_error = 0.0\nsamples = 1\nvalue = 568.0"] ;
1100 -> 1101 ;
1102 [label="squared_error = 0.0\nsamples = 1\nvalue = 574.0"] ;
1100 -> 1102 ;
1103 [label="x[3] <= 0.95\nsquared_error = 0.25\nsamples = 2\nvalue = 661.5"] ;
1095 -> 1103 ;
1104 [label="squared_error = 0.0\nsamples = 1\nvalue = 662.0"] ;
1103 -> 1104 ;
1105 [label="squared_error = 0.0\nsamples = 1\nvalue = 661.0"] ;
1103 -> 1105 ;
1106 [label="x[1] <= 2.5\nsquared_error = 1506.694\nsamples = 7\nvalue = 499.143"] ;
1094 -> 1106 ;
1107 [label="x[9] <= 2.5\nsquared_error = 754.889\nsamples = 3\nvalue = 462.333"] ;
1106 -> 1107 ;
1108 [label="x[9] <= 0.5\nsquared_error = 196.0\nsamples = 2\nvalue = 480.0"] ;
1107 -> 1108 ;
1109 [label="squared_error = 0.0\nsamples = 1\nvalue = 466.0"] ;
1108 -> 1109 ;
1110 [label="squared_error = 0.0\nsamples = 1\nvalue = 494.0"] ;
1108 -> 1110 ;
1111 [label="squared_error = 0.0\nsamples = 1\nvalue = 427.0"] ;
1107 -> 1111 ;
1112 [label="x[0] <= 21.5\nsquared_error = 292.188\nsamples = 4\nvalue = 526.75"] ;
1106 -> 1112 ;
1113 [label="x[2] <= 52.0\nsquared_error = 22.222\nsamples = 3\nvalue = 536.333"] ;
1112 -> 1113 ;
1114 [label="squared_error = 0.0\nsamples = 1\nvalue = 543.0"] ;
1113 -> 1114 ;
1115 [label="squared_error = 0.0\nsamples = 2\nvalue = 533.0"] ;
1113 -> 1115 ;
1116 [label="squared_error = 0.0\nsamples = 1\nvalue = 498.0"] ;
1112 -> 1116 ;
1117 [label="x[3] <= 0.9\nsquared_error = 11238.965\nsamples = 16\nvalue = 716.688"] ;
1093 -> 1117 ;
1118 [label="x[5] <= -6.1\nsquared_error = 41209.0\nsamples = 2\nvalue = 863.0"] ;
1117 -> 1118 ;
1119 [label="squared_error = 0.0\nsamples = 1\nvalue = 1066.0"] ;
1118 -> 1119 ;
1120 [label="squared_error = 0.0\nsamples = 1\nvalue = 660.0"] ;
1118 -> 1120 ;
1121 [label="x[1] <= 6.4\nsquared_error = 3462.454\nsamples = 14\nvalue = 695.786"] ;
1117 -> 1121 ;
1122 [label="x[3] <= 1.4\nsquared_error = 1576.05\nsamples = 11\nvalue = 673.636"] ;
1121 -> 1122 ;
1123 [label="squared_error = 0.0\nsamples = 1\nvalue = 604.0"] ;
1122 -> 1123 ;
1124 [label="x[0] <= 21.5\nsquared_error = 1200.24\nsamples = 10\nvalue = 680.6"] ;
1122 -> 1124 ;
1125 [label="x[0] <= 13.0\nsquared_error = 666.234\nsamples = 8\nvalue = 693.375"] ;
1124 -> 1125 ;
1126 [label="squared_error = 0.0\nsamples = 1\nvalue = 652.0"] ;
1125 -> 1126 ;
1127 [label="x[1] <= 5.95\nsquared_error = 481.918\nsamples = 7\nvalue = 699.286"] ;
1125 -> 1127 ;
1128 [label="squared_error = 346.806\nsamples = 6\nvalue = 704.833"] ;
1127 -> 1128 ;
1129 [label="squared_error = 0.0\nsamples = 1\nvalue = 666.0"] ;
1127 -> 1129 ;
1130 [label="x[1] <= 4.6\nsquared_error = 72.25\nsamples = 2\nvalue = 629.5"] ;
1124 -> 1130 ;
1131 [label="squared_error = 0.0\nsamples = 1\nvalue = 621.0"] ;
1130 -> 1131 ;
1132 [label="squared_error = 0.0\nsamples = 1\nvalue = 638.0"] ;
1130 -> 1132 ;
1133 [label="x[2] <= 35.5\nsquared_error = 1984.667\nsamples = 3\nvalue = 777.0"] ;
1121 -> 1133 ;
